tree
version=v2
num_class=1
num_tree_per_iteration=1
label_index=0
max_feature_idx=47
objective=regression
feature_names=Column_0 Column_1 Column_2 Column_3 Column_4 Column_5 Column_6 Column_7 Column_8 Column_9 Column_10 Column_11 Column_12 Column_13 Column_14 Column_15 Column_16 Column_17 Column_18 Column_19 Column_20 Column_21 Column_22 Column_23 Column_24 Column_25 Column_26 Column_27 Column_28 Column_29 Column_30 Column_31 Column_32 Column_33 Column_34 Column_35 Column_36 Column_37 Column_38 Column_39 Column_40 Column_41 Column_42 Column_43 Column_44 Column_45 Column_46 Column_47
feature_infos=[1.190000057220459:19.790000915527344] [28:574] [0:100] [0.14000000059604645:44.479999542236328] [7.1999998092651367:79.699996948242188] [45:215] [36:1200] [26:795.29998779296875] [0:141.19999694824219] [0.10999999940395355:160.6300048828125] [0.048999998718500137:12.348999977111816] [1:1823.1800537109375] [0.30000001192092896:1502.239990234375] [2.8299999237060547:21.360000610351562] [40:148] [0:197] [13.5:89.5] [47.700000762939453:169.89999389648438] [3.2000000476837158:20.100000381469727] [0:21507] [1.7999999523162842:733] [0:57142] [15:65] [0:1642.9000244140625] [116:450] [10.300000190734863:42.799999237060547] [0:292] [53.200000762939453:120.30000305175781] [0.20999999344348907:63] [0.0099999997764825821:55.799999237060547] [0.14000000059604645:84.800003051757812] [0.20000000298023224:11.5] [0.43000000715255737:18.299999237060547] [2.2200000286102295:7.380000114440918] [4:9] [0.37999999523162842:92.199996948242188] [0.05000000074505806:5.630000114440918] [0.090000003576278687:2.2999999523162842] [4:56.799999237060547] [0.019999999552965164:51.799999237060547] [5.1999998092651367:32.200000762939453] [1.003000020980835:1.0349999666213989] [1.1299999952316284:420.70999145507812] [0:375.57998657226562] [73:246] [38:148] [0.10000000149011612:28.799999237060547] [0.17000000178813934:4.7800002098083496]
tree_sizes=3138 3295 3306 3303 3289 3296 3297 3292 3299 3281 3292 3304 3307 3298 3303 3302 3313 3286 3302 3287 3297 3299 3300 3316 3291 3309 3273 3298 3306 3312 3272 3294 3295 3280 3298 3305 3299 3314 3302 3303 3291 3275 3298 3286 3293 3291 3301 3314 3299 3306 3295 3288 3295 3293 3299 3295 3300 3300 3289 3304 3302 3302 3299 3281 3293 3299 3290 3300 3325 3295 3266 3296 3292 3287 3282 3310 3312 3291 3294 3301 3297 3294 3304 3292 3280 3287 3308 3310 3300 3300 3309 3304 3307 3283 3278 3298 3315 3279 3282 3276 3298 3298 3307 3288 3290 3305 3283 3315 3296 3296 3318 3286 3305 3305 3304 3287 3300 3303 3303 3322 3288 3302 3288 3308 3280 3271 3271 3304 3287 3285 3285 3288 3291 3282 3290 3284 3292 3290 3277 3259 3294 3293 3260 3304 3285 3299 3289 3298 3287 3297 3298 3278 3303 3293 3288 3317 3283 3267 3306 3294 3295 3304 3297 3315 3288 3322 3299 3307 3308 3280 3290 3282 3302 3309 3286 3300 3267 3287 3282 3267 3321 3292 3293 3266 3283 3282 3268 3281 3269 3283 3274 3274 3282 3293 3281 3276 3295 3288 3282 3284 3294 3292 3290 3263 3281 3296 3280 3275 3272 3285 3296 3308 3287 3299 3272 3298 3287 3287 3298 3293 3293 3276 3275 3272 3299 3315 3302 3295 3311 3302 3289 3296 3299 3291 3296 3273 3276 3275 3277 3288 3123 3128 3124 3280 3126 3267 3282 3299 3246 3259 3299 3246 3283 3259 3254 3285 3285 3280 3295 3300 3292 3279 3264 3272 3274 3284 3258 3256 3271 3297 3273 3282 3283 3255 3288 3284 3257 3303 3285 3293 3270 3276 3288 3105 2870 3273 3299 3277 3283 3272 3296 3288 3298 3291 3306 3278 3266 3267 3271 2704 3268 3286 3272 3273 3270 3290 3305 3285 3281 3280 3244 3280 3278 3259 3289 3304 3286 3293 3271 3288

Tree=0
num_leaves=40
num_cat=0
split_feature=19 23 23 13 23 47 47 30 13 6 8 12 44 8 8 47 47 0 19 10 23 19 7 23 23 40 23 47 31 39 13 22 47 7 8 13 29 3 6
split_gain=689.116 274.813 134.584 103.703 100.501 63.9036 61.909 55.7338 55.0494 44.758 37.5427 35.8475 33.3048 30.1858 29.394 25.1697 24.1035 22.0688 22.0432 20.7746 20.1381 20.071 16.4839 15.1325 14.6894 14.4987 13.8173 14.9039 13.802 15.0113 13.6692 12.4418 12.1547 17.5636 11.2356 10.4945 9.93639 9.6504 9.63072
threshold=22.050000190734867 17.304999351501468 33.010000228881843 5.0950000286102304 18.005000114440922 1.185000002384186 1.1250000000000002 31.220000267028812 5.5750000476837167 277.58500671386724 4.5450000762939462 60.690000534057624 134.50000000000003 2.9550000429153447 5.1749999523162851 1.3450000286102297 0.97500002384185802 4.0250000953674325 20.250000000000004 1.1110000014305117 25.005000114440922 20.250000000000004 97.625000000000014 12.210000038146974 15.994999885559084 14.449999809265138 11.994999885559084 0.97500002384185802 2.0949999094009404 0.44399999082088476 6.0950000286102304 45.604999542236335 1.185000002384186 89.005001068115249 3.935000061988831 5.0350000858306894 6.8350000381469735 5.9049999713897714 352.00500488281256
decision_type=8 8 10 8 10 2 2 10 8 10 8 8 2 8 10 2 2 8 10 8 8 10 10 10 8 8 10 2 10 8 10 8 2 10 8 8 8 8 10
left_child=4 15 3 9 8 16 31 -7 12 20 -11 14 13 25 -8 26 -5 -17 30 -13 -3 -15 23 -19 -10 -1 -2 -28 32 35 34 -4 -20 -34 -6 -30 -33 -24 -31
right_child=1 2 6 5 18 7 11 -9 24 10 -12 19 -14 21 -16 17 -18 22 28 -21 -22 -23 37 -25 -26 -27 27 -29 29 38 -32 36 33 -35 -36 -37 -38 -39 -40
leaf_value=2.7666463503794709 2.7595883890358395 2.7675776458559778 2.7657813743143422 2.7647829738897705 2.7660328782730095 2.7698586742176352 2.7727836769537006 2.774077724953163 2.762743367482984 2.7693691671218317 2.7661406805096278 2.8058104129582184 2.7651086037534149 2.7584391657234373 2.7686764107071831 2.762961707669271 2.7685119053152949 2.7634882557689733 2.7628382537508513 2.7775340973661424 2.7631486916156778 2.7610223193441681 2.7889187464688758 2.7674907189411773 2.7672151640875513 2.7619465846985021 2.7583998866343022 2.7641549708032418 2.7659545304681785 2.7722354128715065 2.7753035946738533 2.7665539842688553 2.7663480275386227 2.7732822213344948 2.7618102295303188 2.7736308675278365 2.7702182486957079 2.77196413632341 2.7889654143228668
leaf_count=192 252 309 260 533 217 3192 2621 904 264 1505 1756 6 398 1319 461 502 1454 299 176 228 915 1390 9 735 442 640 114 905 102 16 22 210 654 94 409 66 804 47 15
internal_value=0 0.0985199 0.152188 0.0900891 -0.283115 0.175149 0.295165 0.246536 -0.360396 -0.0252768 0.0359257 0.367151 -0.406485 -0.437312 0.338502 -0.185625 0.0279902 -0.101847 -0.0804232 0.744489 -0.188334 -0.48848 -0.021945 -0.0505637 -0.103253 -0.27071 -0.290562 -0.238711 0.00432406 0.24321 -0.227292 0.107798 -0.0471243 0.00850981 -0.25452 0.12523 0.157839 0.50648 0.882586
internal_count=24437 18021 15158 10568 6416 6083 4590 4096 4645 4485 3261 3316 3939 3541 3082 2863 1987 1592 1771 234 1224 2709 1090 1034 706 832 1271 1019 1123 199 648 1274 924 748 626 168 1014 56 31
shrinkage=1


Tree=1
num_leaves=40
num_cat=0
split_feature=19 23 23 13 23 47 47 16 30 13 12 38 44 6 8 39 47 47 0 19 10 19 7 23 23 23 47 31 39 13 9 16 47 7 22 8 4 13 3
split_gain=668.598 266.631 130.577 100.616 97.5088 62.0009 60.0656 56.0157 54.0743 53.4103 34.7802 33.4239 32.3131 32.1885 29.2871 29.1328 24.4203 23.3858 21.4117 21.3869 20.1561 19.4734 15.9931 14.6819 14.252 13.4059 14.4601 13.391 14.5643 13.2622 13.1501 12.1333 11.7927 17.0406 10.9233 10.9011 10.6713 10.182 9.36306
threshold=22.050000190734867 17.304999351501468 33.010000228881843 5.0950000286102304 18.005000114440922 1.185000002384186 1.1250000000000002 38.149999618530281 31.220000267028812 5.5750000476837167 60.690000534057624 33.850000381469734 134.50000000000003 371.00999450683599 2.9550000429153447 0.20750000327825549 1.3450000286102297 0.97500002384185802 4.0250000953674325 20.250000000000004 1.1110000014305117 20.250000000000004 97.625000000000014 12.210000038146974 15.994999885559084 11.994999885559084 0.97500002384185802 2.0949999094009404 0.44399999082088476 6.0950000286102304 8.2049999237060565 71.149997711181655 1.185000002384186 89.005001068115249 46.704999923706062 3.935000061988831 33.405000686645515 5.0350000858306894 5.9049999713897714
decision_type=8 8 10 8 10 2 2 10 10 8 8 8 2 10 8 8 2 2 8 10 8 10 10 10 8 10 2 10 8 10 10 8 2 10 10 8 10 8 8
left_child=4 16 3 7 9 17 31 13 -7 12 15 -9 14 -3 30 -8 25 -5 -18 29 -12 -16 23 -20 -11 -2 -27 32 37 35 -1 34 -21 -34 -4 -6 -33 -29 -24
right_child=1 2 6 5 19 8 10 11 -10 24 20 -13 -14 -15 21 -17 18 -19 22 27 -22 -23 38 -25 -26 26 -28 28 -30 -31 -32 36 33 -35 -36 -37 -38 -39 -40
leaf_value=-0.0062018640807929674 -0.0073908494423068037 -0.0027324158280233419 0.0016988267734243921 -0.0022741836502817832 -0.0010430279070262533 0.0027253811215633278 0.0021328430984972565 -0.0014842097857521786 0.0068811460654586093 -0.0042831957952743811 0.03813784446567297 0.0032606363092536244 -0.0019534380354885778 0.00065286217131594845 -0.0085228348190301683 0.0057428022528949688 -0.0040681307584481442 0.0013988139677377728 -0.00354948092918192 -0.0041897328660971565 0.010285672898355282 -0.0059784284337740324 0.021499551932017007 0.00039294515156700294 0.00012152368470666112 -0.0085615244608274414 -0.0028927667664559505 -0.0011202003393897457 0.013040202942248733 0.0080886277353221705 -0.0023848384571247151 0.00093807455474088691 -0.00073260562703731128 0.0060975751387292235 0.0065289324961799889 -0.0052023367820567198 -0.0064947890729197986 0.0064409916543147778 0.0047992610832319612
leaf_count=352 252 1937 267 533 217 3192 633 473 904 264 6 1137 398 938 1319 2449 502 1454 299 176 228 1390 9 735 442 114 905 102 31 22 480 787 654 94 174 409 46 66 47
internal_value=0 0.0970421 0.149906 0.0887378 -0.278869 0.172521 0.290738 -0.0248977 0.242838 -0.35499 0.361644 0.124444 -0.400387 -0.108529 -0.430752 0.333424 -0.18284 0.0275704 -0.100319 -0.0792169 0.733322 -0.481153 -0.0216158 -0.0498053 -0.101704 -0.286203 -0.23513 0.0042592 0.239562 -0.223883 -0.266649 0.106181 -0.0464174 0.00838217 0.240306 -0.250702 0.0351744 0.123351 0.498882
internal_count=24437 18021 15158 10568 6416 6083 4590 4485 4096 4645 3316 1610 3939 2875 3541 3082 2863 1987 1592 1771 234 2709 1090 1034 706 1271 1019 1123 199 648 832 1274 924 748 441 626 833 168 56
shrinkage=0.015


Tree=2
num_leaves=40
num_cat=0
split_feature=46 46 47 46 39 30 37 18 23 23 46 47 13 19 19 23 21 47 46 47 23 47 16 47 47 38 35 13 30 40 40 38 6 18 16 26 12 23 16
split_gain=1437.73 198.677 150.689 135.25 85.2957 206.174 84.343 57.2278 60.3532 46.5914 43.4608 40.973 38.4774 33.8566 32.0475 28.2089 25.6092 21.5083 21.0126 19.8738 19.744 19.7164 16.649 15.8247 15.3226 17.3203 14.7606 14.2562 14.2243 13.6468 12.5135 12.1058 11.8064 11.7431 11.2701 14.5026 10.9054 10.2075 9.85427
threshold=1.0049999952316286 1.3149999976158144 1.0950000286102297 0.67500001192092907 26.400000572204593 26.349999427795414 0.90500000119209301 12.250000000000002 20.904999732971195 20.005000114440922 4.4749999046325692 1.1349999904632571 5.2750000953674325 21.750000000000004 22.150000572204593 28.404999732971195 63.649999618530281 1.3450000286102297 3.8750000000000004 1.185000002384186 11.444999694824221 1.4450000524520876 62.149999618530281 1.4650000333786013 0.97500002384185802 13.250000000000002 61.250000000000007 5.2650001049041757 41.350000381469734 14.949999809265138 14.449999809265138 16.550000190734867 520.04998779296886 8.3499999046325701 50.850000381469734 0.33200000226497656 1.0000000180025095e-35 21.494999885559086 64.450000762939467
decision_type=2 2 2 2 8 10 8 8 10 10 2 2 8 8 8 8 8 2 2 2 8 2 8 2 2 8 8 8 10 8 8 8 10 8 10 8 10 8 8
left_child=3 11 15 13 7 10 -7 8 -4 14 -6 37 16 23 21 34 22 29 -9 -15 -14 30 -13 -1 32 -26 -21 -19 -22 -16 -5 -23 -17 -11 -3 -36 -35 -2 -18
right_child=1 2 4 9 5 6 -8 18 -10 33 -12 12 20 19 17 24 38 27 -20 26 28 31 -24 -25 25 -27 -28 -29 -30 -31 -32 -33 -34 36 35 -37 -38 -39 -40
leaf_value=-0.011636984701312723 -0.0054084663131230958 -0.003761632860000667 0.0010636385082764016 -0.0037618415009230371 0.0050588495152334365 0.0090430729890029291 0.020791741428707551 -0.001978206486300271 0.0053059276403224463 -0.0057719234743949452 -0.0010830089658028003 2.2540179510472016e-05 -0.0066375112440437076 -0.010203218230623347 -0.0014442845547778737 -0.00074068043029135958 0.0040927341359257522 -0.0032989517226956824 -0.013993548290124414 -0.002684510148229026 0.0025571544392022365 -0.0073042991644288735 -0.0035179519694858671 -0.0082741862373408425 -0.0012117352809352603 0.0034115649355252581 -0.0064575353222873751 -7.9268642966312788e-05 0.0089006368699483564 -0.0059616706806477071 -0.0085502795523315928 -0.0038019591607471354 0.0055736726584959106 0.0058298448480379114 0.02019983097910881 -0.00034612031508750952 -0.0011897829880892421 -0.0019085602673470483 0.00043625715423143698
leaf_count=504 264 410 1436 150 4808 304 251 285 1590 122 274 515 50 230 189 763 209 799 37 328 1237 295 712 839 228 910 808 505 85 738 677 898 73 52 8 229 1175 647 803
internal_value=0 0.172471 0.24175 -0.339562 0.303293 0.378381 0.957096 0.176867 0.219516 -0.250825 0.31518 -0.00534089 0.0424702 -0.522998 -0.302208 0.0307785 -0.0383349 -0.21959 -0.223923 -0.41215 0.174338 -0.393457 -0.135462 -0.635745 0.0901718 0.165685 -0.357876 -0.136804 0.197668 -0.336043 -0.512117 -0.3112 -0.0126205 -0.0889062 -0.150431 0.0231609 -0.0594862 -0.194854 0.0794266
internal_count=24437 16128 11606 8309 8985 5637 555 3348 3026 5600 5082 4522 3611 2709 4251 2621 2239 2231 322 1366 1372 2020 1227 1343 1974 1138 1136 1304 1322 927 827 1193 836 1349 647 237 1227 911 1012
shrinkage=0.015


Tree=3
num_leaves=40
num_cat=0
split_feature=46 46 47 46 39 31 29 31 23 46 23 47 6 19 0 23 13 40 46 19 19 47 39 47 23 47 39 23 39 12 24 30 18 47 38 6 16 26 8
split_gain=1394.92 192.761 146.202 131.223 82.756 201.444 92.4741 77.2707 64.6184 45.8177 45.3011 39.753 37.8007 32.8485 32.3911 27.3689 27.3519 22.3059 21.9507 19.9933 19.3109 19.282 18.8988 15.3535 15.2274 14.8664 16.8917 14.5064 14.0088 13.9805 12.5606 12.1866 12.1261 12.1079 11.8776 11.4942 10.9345 14.0708 10.0726
threshold=1.0049999952316286 1.3149999976158144 1.0950000286102297 0.67500001192092907 26.400000572204593 1.5249999761581423 11.750000000000002 0.56999999284744274 20.904999732971195 4.4749999046325692 17.005000114440922 1.1349999904632571 345.00500488281256 21.750000000000004 6.4949998855590829 28.404999732971195 5.2950000762939462 16.44999980926514 4.7349998950958261 20.349999427795414 20.94999980926514 1.185000002384186 0.29549999535083776 1.4650000333786013 13.00500011444092 0.97500002384185802 0.24049999564886096 11.444999694824221 0.2754999995231629 12.00500011444092 328.50000000000006 29.94999980926514 8.1100001335144061 1.4450000524520876 19.250000000000004 507.54499816894537 50.850000381469734 0.33200000226497656 3.8649998903274541
decision_type=2 2 2 2 8 10 8 10 10 2 10 2 10 8 8 8 8 8 2 8 8 2 8 2 10 2 8 8 8 10 10 10 8 2 10 10 10 8 8
left_child=3 11 15 13 7 9 -7 18 -9 -6 14 -2 16 23 20 36 24 22 -4 -14 34 -15 -16 -1 -13 35 -27 -18 -22 -12 -21 -23 -31 -19 -5 -17 -3 -38 -34
right_child=1 2 4 10 5 6 -8 8 -10 -11 29 12 19 21 17 25 27 33 -20 30 28 31 -24 -25 -26 26 -28 -29 -30 32 -32 -33 38 -35 -36 -37 37 -39 -40
leaf_value=-0.011462430035237394 -0.0028789610946223826 -0.0037052083639683565 -0.0049466876790393143 -0.0074389317614308066 0.0049253503996829632 0.0086381418638900951 0.020229210065265332 0.0009495431444742267 0.0052543415163929528 -0.0014055037978858522 0.0036466496695515393 -0.0031509458722405103 -0.003499005932963508 -0.010050170037275402 -0.0019309265714741116 -0.00081997011754130064 -0.0067477440922944377 -0.0058091309967820935 -0.023798557102680206 0.0022343537687983801 -0.0062079715554188295 -0.0063329193471318174 0.0070298276476231988 -0.0081500734562029026 -0.00017335419980202483 -0.00043620264315492033 0.0036059443113814725 0.0020846562194986895 -0.0035829505440894949 -0.006278457164673225 0.0056270942081736493 -0.0029785079386438463 0.00014255037141992942 -0.00062631879100060947 -0.0019033817146555522 0.0046967786856475869 0.019896833337843419 -0.00034092860796598626 -0.0024809754052567148
leaf_count=504 911 410 189 953 4731 365 269 1505 1639 272 101 763 102 230 109 740 44 234 15 684 678 782 103 839 783 326 812 852 1406 143 383 354 464 179 96 96 8 229 1134
internal_value=0 0.169883 0.238124 -0.334469 0.298743 0.372706 0.903741 0.174214 0.212912 0.305411 -0.247063 -0.00526078 0.0418332 -0.515153 -0.310032 0.0303168 -0.0289566 -0.10217 -0.42219 0.189711 -0.351498 -0.405967 0.16151 -0.626209 -0.109526 0.0888192 0.1632 0.110061 -0.295798 -0.118595 0.230145 -0.352508 -0.139579 -0.237522 -0.462156 -0.0124312 -0.148174 0.0228135 -0.114613
internal_count=24437 16128 11606 8309 8985 5637 634 3348 3144 5003 5600 4522 3611 2709 3758 2621 2442 625 204 1169 3133 1366 212 1343 1546 1974 1138 896 2084 1842 1067 1136 1741 413 1049 836 647 237 1598
shrinkage=0.015


Tree=4
num_leaves=40
num_cat=0
split_feature=19 23 23 13 23 47 16 13 30 47 38 12 40 6 31 19 47 8 19 10 0 47 16 29 44 47 23 8 23 3 31 39 23 13 45 47 7 22 16
split_gain=617.918 247.934 121.631 93.1699 89.7328 59.2653 57.0561 50.2504 50.1214 49.2052 35.6336 32.5268 32.133 29.2487 27.8777 27.0299 23.1306 21.0012 19.994 19.5007 19.119 18.4413 18.2135 18.9777 15.7628 14.8317 14.6775 13.9156 13.4369 13.0904 12.816 13.6661 12.6714 12.5606 11.7748 11.2508 16.1945 10.8095 10.4626
threshold=22.050000190734867 17.304999351501468 34.420000076293952 5.0950000286102304 18.005000114440922 1.1349999904632571 38.149999618530281 5.5750000476837167 31.220000267028812 1.1250000000000002 33.850000381469734 60.690000534057624 13.650000095367433 371.00999450683599 2.5449999570846562 20.250000000000004 1.3450000286102297 2.304999947547913 20.250000000000004 1.1110000014305117 3.6950000524520878 0.9650000035762788 63.95000076293946 11.050000190734865 138.50000000000003 1.1950000524520876 12.210000038146974 2.9850000143051152 15.994999885559084 7.1649999618530282 2.0949999094009404 0.44399999082088476 15.014999866485597 6.0950000286102304 70.500000000000014 1.185000002384186 89.005001068115249 45.604999542236335 56.549999237060554
decision_type=8 8 10 8 10 2 10 8 10 2 8 8 8 10 10 10 2 8 10 8 8 2 8 8 2 2 10 8 8 10 10 8 10 10 2 2 10 8 8
left_child=4 16 3 6 7 21 13 12 -7 37 -8 14 24 -3 -11 34 32 22 33 -13 -19 -5 23 -18 27 -17 -22 -1 -9 -24 35 -32 -2 -6 -14 -20 -37 -4 -39
right_child=1 2 9 5 18 8 10 28 -10 11 -12 19 15 -15 -16 25 17 20 30 -21 26 -23 29 -25 -26 -27 -28 -29 -30 -31 31 -33 -34 -35 -36 36 -38 38 -40
leaf_value=7.1916613082167194e-05 -0.005209978373117141 -0.0026237362476140298 -0.0010751396962394937 -0.0023633215736042165 -0.0036379825554251782 0.0025516122746231953 -0.0015134135370796417 -0.004109007422230207 0.0063562581766851197 0.0043494762594278417 0.0033299270647644563 0.037431246098130942 -0.0090901318331475644 0.00056564341894778608 0.0092254110248266696 -0.0080979751708898234 0.0021922313428462243 -0.0054259527199648893 -0.0040935724743956757 0.010021206490720993 -0.0039044639473754298 0.0011061078988062218 -0.0037288078340853366 0.017188537575523639 0.0033401657972339685 -0.0044965533463880592 -5.8029376708062777e-05 -0.0048971895364581259 0.00016790636988370933 0.0067482958719707452 0.00182671074256567 0.01266607979537859 -0.002025873885126202 0.0078935167701406905 -0.0063323704260655712 -0.00071518249535258141 0.0059432578954271018 0.0093274325734757357 0.0020712960509189503
leaf_count=163 851 1963 250 497 626 3577 483 264 996 2650 1169 6 859 965 293 317 43 304 176 219 314 1125 86 34 77 1366 772 571 442 39 168 31 420 22 586 654 94 47 918
internal_value=0 0.0933011 0.144277 0.0871456 -0.268082 0.1671 -0.0210021 -0.341105 0.225351 0.284728 0.127591 0.350345 -0.385139 -0.104839 0.322328 -0.431128 -0.17659 -0.0962775 -0.0765562 0.716809 -0.140062 0.00286891 0.205011 0.587598 -0.207758 -0.344993 -0.0780111 -0.252913 -0.0954262 -0.0306634 0.00415577 0.23435 -0.277186 -0.216432 -0.531451 -0.0454208 0.00810489 0.113638 0.161647
internal_count=24437 18021 15158 10775 6416 6195 4580 4645 4573 4383 1652 3168 3939 2928 2943 3128 2863 1592 1771 225 1390 1622 202 77 811 1683 1086 734 706 125 1123 199 1271 648 1445 924 748 1215 965
shrinkage=0.015


Tree=5
num_leaves=40
num_cat=0
split_feature=46 46 47 46 13 40 46 39 0 47 19 19 47 39 37 47 23 37 47 23 0 0 8 38 47 35 23 47 38 23 8 19 8 9 28 16 21 47 39
split_gain=1312.18 156.72 135.163 128.143 69.5139 67.8694 63.18 57.9025 49.0016 36.7327 33.8912 32.9909 27.9508 27.3688 24.8964 23.6534 23.4319 22.8049 20.4615 19.6884 18.6724 17.9942 17.7262 16.3865 19.7974 16.3261 14.8192 13.9077 13.3512 12.577 11.9983 10.8798 10.8675 10.3809 10.1886 10.2274 9.76595 19.0684 9.6704
threshold=1.0249999761581423 1.4149999618530276 1.0950000286102297 0.70499998331069957 5.2650001049041757 11.949999809265138 4.4749999046325692 0.32050000131130224 4.2049999237060556 1.1749999523162844 21.44999980926514 22.150000572204593 1.075000047683716 0.25949999690055853 1.0199999809265139 1.185000002384186 16.505000114440922 1.0000000180025095e-35 1.3550000190734866 25.804999351501468 4.9649999141693124 7.555000066757203 5.7950000762939462 34.549999237060554 0.84499999880790722 61.250000000000007 128.65999603271487 1.485000014305115 29.700000762939457 14.175000190734865 3.3249999284744267 20.94999980926514 4.7049999237060556 11.795000076293947 37.720001220703132 71.149997711181655 60.45000076293946 1.544999957084656 0.24149999767541888
decision_type=2 2 2 2 8 8 2 8 8 2 8 8 2 8 8 2 10 10 2 8 8 8 10 8 2 8 10 2 10 8 8 8 10 10 10 8 8 2 8
left_child=3 4 19 10 12 13 7 -7 28 -6 27 30 -2 17 -15 -12 38 -4 32 34 31 -20 -18 -21 -25 -17 -8 -1 36 -22 33 -11 -13 -10 -3 -36 37 -5 -14
right_child=1 2 5 8 9 6 26 -9 11 20 15 18 16 14 -16 25 22 -19 21 23 29 -23 -24 24 -26 -27 -28 -29 -30 -31 -32 -33 -34 -35 35 -37 -38 -39 -40
leaf_value=-0.010645181967847748 -0.0045166806710422724 -0.0046485820541280068 -0.00465513578048203 -0.0087105020075271926 -0.00096248523387893305 0.0024676461639786128 -0.0025069811648531217 0.0054254351261905209 -0.003096668260281306 -0.0024749147020297767 -0.0095941765892206873 -0.0018429911482407964 -0.0034094455876517334 0.0093986241506442934 0.018038561703936595 -0.0025412222236072092 0.0017068796721190305 0.0074076329893432548 -0.00066219540852879442 -0.0012780912103551288 -0.00093772484515996081 0.0042605265908475434 -0.0038020878354546837 -0.0029819067439181496 0.0024845753699439693 -0.0059945308479517623 0.0052466134291428781 -0.0076463958468493192 -0.0013054351671738271 0.0057418604818629511 -0.0049287823156651707 0.002694913266489339 -0.00549400973441618 0.0030958175311724726 0.0036789855315409441 -0.0027849653279723918 -0.0043776318067891007 -0.0045211798784149035 -0.0008496868695368414
leaf_count=576 422 218 41 513 502 2193 378 4640 278 107 298 758 474 263 105 440 1173 252 944 478 69 203 148 167 1388 1027 65 879 167 785 1044 636 242 78 94 133 683 467 1109
internal_value=0 0.167113 0.238902 -0.318142 0.0292925 0.302555 0.274684 0.29841 -0.223664 0.171785 -0.475909 -0.155095 -0.0606326 0.609355 0.790922 -0.382761 -0.0256868 0.381311 -0.0772167 0.0350207 0.245953 0.0139363 0.072645 0.0767235 0.1265 -0.330585 -0.091288 -0.588903 -0.356569 0.346812 -0.274526 0.130027 -0.181769 -0.115993 -0.155501 -0.00721755 -0.383636 -0.447611 -0.107744
internal_count=24437 15840 10415 8597 5425 7937 7276 6833 5377 2099 3220 3547 3326 661 368 1765 2904 293 2147 2478 1597 1147 1321 2033 1555 1467 443 1455 1830 854 1400 743 1000 356 445 227 1663 980 1583
shrinkage=0.015


Tree=6
num_leaves=40
num_cat=0
split_feature=46 47 46 46 13 46 39 24 19 31 23 19 0 23 38 35 47 30 0 35 39 7 8 47 47 23 1 39 47 47 28 31 28 32 24 23 23 45 7
split_gain=1273.12 146.26 140.42 135.504 68.1114 62.692 55.063 118.134 47.986 43.3811 36.5086 32.9532 29.7879 25.2317 22.2976 20.928 20.7401 20.5314 19.9778 18.2639 24.7589 23.0933 18.2522 18.1255 17.5959 17.1591 16.3759 19.0531 16.3332 15.8034 14.017 13.6135 13.4373 12.7632 12.5957 12.062 10.5562 10.174 10.1526
threshold=1.044999957084656 1.0950000286102297 1.4750000238418581 0.70499998331069957 5.2550001144409189 4.4749999046325692 0.32050000131130224 324.50000000000006 22.150000572204593 1.1050000190734866 25.804999351501468 21.750000000000004 3.9450000524520878 16.505000114440922 34.549999237060554 61.350000381469734 1.325000047683716 41.350000381469734 7.555000066757203 61.049999237060554 0.080499999225139632 139.15000152587893 5.3949999809265146 1.5249999761581423 0.84499999880790722 21.010000228881839 194.50000000000003 0.1094999983906746 1.4650000333786013 1.1950000524520876 37.80999946594239 2.2150000333786015 37.720001220703132 3.7250000238418584 324.50000000000006 14.00500011444092 18.590000152587894 70.500000000000014 49.995000839233406
decision_type=2 2 2 2 8 2 8 10 8 10 8 8 8 10 8 8 2 10 8 8 10 8 8 2 2 8 10 10 2 2 10 10 10 10 10 8 10 2 8
left_child=3 10 4 11 13 6 9 -8 23 -4 32 28 37 34 31 -13 36 25 -18 20 -7 -21 -15 26 -16 -6 -5 -28 -1 -17 -26 -12 -2 -19 -3 -25 -14 -10 -31
right_child=1 2 5 8 17 19 7 -9 12 -11 14 15 16 22 24 29 18 33 -20 21 -22 -23 -24 35 30 -27 27 -29 -30 38 -32 -33 -34 -35 -36 -37 -38 -39 -40
leaf_value=-0.010501175122162658 -0.0053087540024848428 -0.0024241667102623391 -0.0029001119190332721 -0.007221193719171232 0.00068318371083961088 0.020283232247947078 0.0049019862896342832 0.011697667364175948 -0.0064981772917747978 0.0037755253872182436 -0.0038529660151455664 -0.0028703979969548401 -0.0039433179612088625 0.0030460425857373901 -0.0030499611277275927 -0.010405293998568701 -0.00079895425086696646 0.0079444295946027969 0.0040575352481808432 -0.0029160236120482244 0.0013630479472407767 0.021414396017789841 -0.00045870458811104163 -0.0056902399892997651 0.00070753566652407749 0.0039678655888957066 0.0054546400448158778 -0.0047400885994251796 -0.0073750518020276809 -0.0095622569377476034 0.0034535762480136954 0.00071119412978317038 -0.0011706900666442316 0.023811993736487166 0.00041650566943133709 -0.0023706839556377822 -0.00097383128021610909 -0.0030609916576249652 -0.0051599482941821744
leaf_count=606 365 1026 244 855 486 19 3907 675 345 2140 355 473 671 693 186 204 1188 93 227 355 86 9 646 363 1048 1357 47 337 991 138 696 251 342 13 534 766 450 442 808
internal_value=0 0.169373 0.219245 -0.304832 0.0868346 0.305583 0.329409 0.39354 -0.212075 0.206152 -0.0195184 -0.46877 -0.134559 -0.0103529 0.0365037 -0.368421 -0.0818162 0.231394 -0.00132378 -0.0483092 0.319113 -0.154296 0.0903453 -0.320852 0.0890464 0.20678 -0.404367 -0.23282 -0.570753 -0.441247 0.120229 -0.130835 -0.220469 0.659363 -0.0967855 -0.2292 -0.183419 -0.304518 -0.38681
internal_count=24437 15526 12283 8911 4848 7435 6966 4582 5691 2384 3243 3220 3323 2899 2536 1623 2536 1949 1415 469 105 364 1339 2368 1930 1843 1239 384 1597 1150 1744 606 707 106 1560 1129 1121 787 946
shrinkage=0.015


Tree=7
num_leaves=40
num_cat=0
split_feature=46 46 47 46 13 40 46 39 0 47 19 19 47 39 37 47 39 24 37 47 23 0 0 35 38 47 47 40 23 38 31 47 12 8 19 28 16 21 47
split_gain=1235.72 148.282 126.708 120.525 65.6894 64.7798 59.5154 54.869 46.7052 35.0501 31.992 30.8362 26.9459 25.6594 24.0927 22.4693 22.4451 37.3497 22.0384 19.3044 18.4777 18.0172 16.9378 15.4807 15.4067 18.6856 14.6407 13.5175 13.4592 12.9251 12.2271 11.627 12.0866 10.5283 10.4856 9.6127 9.92292 9.35959 18.2292
threshold=1.0249999761581423 1.4149999618530276 1.0950000286102297 0.70499998331069957 5.2650001049041757 11.949999809265138 4.4749999046325692 0.32050000131130224 4.2049999237060556 1.1749999523162844 21.44999980926514 22.150000572204593 1.075000047683716 0.25949999690055853 1.0199999809265139 1.185000002384186 0.22250000387430194 324.50000000000006 1.0000000180025095e-35 1.3550000190734866 25.804999351501468 4.9649999141693124 7.555000066757203 61.250000000000007 34.549999237060554 0.84499999880790722 3.1600000858306889 10.949999809265138 13.00500011444092 29.700000762939457 2.5149999856948857 1.4550000429153445 30.005000114440922 4.7049999237060556 20.94999980926514 37.720001220703132 71.149997711181655 60.45000076293946 1.544999957084656
decision_type=2 2 2 2 8 8 2 8 8 2 8 8 2 8 8 2 8 10 10 2 8 8 8 8 8 2 2 10 10 10 10 2 8 10 8 10 8 8 2
left_child=3 4 20 10 12 13 7 -7 29 -6 28 31 -2 18 -15 -12 27 -18 -4 33 35 34 -21 -17 -22 -26 -8 -14 -1 37 -23 -10 -33 -13 -11 -3 -37 38 -5
right_child=1 2 5 8 9 6 26 -9 11 21 15 19 16 14 -16 23 17 -19 -20 22 24 30 -24 -25 25 -27 -28 -29 -30 -31 -32 32 -34 -35 -36 36 -38 -39 -40
leaf_value=-0.0097609085375678795 -0.0044313094201271523 -0.0044992220084585565 -0.0046105504388035071 -0.0084937412848380238 -0.00095779711825637326 0.0023862657073459434 -0.0016514878465316643 0.0052655341775285271 -0.0055333099136904498 -0.0024663150662591104 -0.009323661675428245 -0.0017767209660167877 0.0027976901480772842 0.0091124985268438673 0.017611842659102487 -0.0024516453617993233 -0.00077424969462679572 0.0037119873329078124 0.0072477498904516408 -0.0006402781644828852 -0.0012302003690919832 0.0045571342736288739 0.0041357557784038792 -0.005814358557885836 -0.0028914287122709589 0.0024193330962121655 0.021940136440098283 -0.0034096530529781391 -0.0068209923087035381 -0.0012248389650356514 0.011325548977519456 -0.0035625811573048263 0.0016262348801946312 -0.0053703015317470761 0.0026089784362515927 0.0036413611320065373 -0.0027256304377128011 -0.0042544185592901735 -0.0043976330668153195
leaf_count=867 422 218 41 513 502 2193 437 4640 613 107 298 758 90 263 105 440 1608 564 252 944 478 789 203 1027 167 1388 6 642 588 167 65 668 119 242 636 94 133 683 467
internal_value=0 0.162172 0.232001 -0.308733 0.0281129 0.293632 0.266402 0.28943 -0.217107 0.16663 -0.461739 -0.150163 -0.0593035 0.593367 0.769172 -0.371238 -0.0249917 0.0260457 0.37256 -0.0748713 0.0345999 0.23908 0.0136667 -0.320385 0.0750002 0.123265 -0.0887975 -0.17643 -0.571521 -0.34686 0.338153 -0.265629 -0.1852 -0.176424 0.125205 -0.14997 -0.00593859 -0.373492 -0.436121
internal_count=24437 15840 10415 8597 5425 7937 7276 6833 5377 2099 3220 3547 3326 661 368 1765 2904 2172 293 2147 2478 1597 1147 1467 2033 1555 443 732 1455 1830 854 1400 787 1000 743 445 227 1663 980
shrinkage=0.015


Tree=8
num_leaves=40
num_cat=0
split_feature=46 46 47 39 30 37 38 31 19 19 6 23 47 29 0 47 23 47 0 38 31 46 47 0 38 38 47 7 0 0 29 39 28 16 28 8 47 31 31
split_gain=1200.66 191.569 142.142 79.0745 162.736 144.669 70.7383 62.8286 49.9057 43.7255 42.205 35.5641 31.8554 31.6265 29.7796 29.9109 29.1827 25.3499 24.1748 23.4471 22.547 22.4777 19.982 19.201 18.6339 18.249 17.8577 16.9598 16.4209 14.3496 13.52 13.3769 13.1018 12.4783 12.1196 11.687 11.7492 11.4374 9.97922
threshold=1.1549999713897707 0.80500000715255748 1.0950000286102297 0.33249999582767492 0.37500000000000006 1.1500000357627871 46.549999237060554 1.8350000381469729 20.94999980926514 21.150000572204593 338.00500488281256 17.505000114440922 3.2000000476837163 18.050000190734867 3.6950000524520878 1.3550000190734866 25.804999351501468 1.1250000000000002 4.6549999713897714 15.050000190734865 2.3149999380111699 3.7749999761581425 1.4650000333786013 8.3450002670288104 11.050000190734865 34.549999237060554 0.84499999880790722 50.014999389648445 6.4749999046325692 4.9849998950958261 5.9400000572204599 0.23949999362230304 37.80999946594239 58.750000000000007 37.720001220703132 2.9250000715255742 1.4450000524520876 2.2150000333786015 1.6749999523162844
decision_type=2 2 2 8 10 8 8 10 8 8 8 10 2 10 8 2 8 2 8 8 10 2 2 8 8 8 2 10 8 10 8 8 10 8 10 8 2 10 10
left_child=1 9 16 7 10 19 -7 13 31 22 18 24 -12 21 -10 30 34 -11 -5 -6 27 -4 -1 -13 -9 37 -27 -19 -17 -22 -16 -3 -28 -24 -2 -33 -37 -18 -35
right_child=2 8 3 4 5 6 -8 11 14 17 12 23 -14 -15 15 28 25 20 -20 -21 29 -23 33 -25 -26 26 32 -29 -30 -31 -32 35 -34 38 -36 36 -38 -39 -40
leaf_value=-0.0097840147429359477 -0.0049636208538320807 -0.00701647006969948 0.00045654780323161259 0.00081797815736558434 0.00083402054422655172 0.0058149750890055052 0.021062816335156991 -0.0073151645809411995 -0.0040118283728370445 -0.008449054197828482 0.0046732592809134504 0.0045753241488243838 0.039267404042184352 -0.012017366846694666 -0.0051419139061011391 -0.00011859229111229069 -0.0034227090819792753 -0.007467674380049528 0.0036969215674364842 0.0073717293905504605 -0.0026439871347351328 -0.007274783227282265 -0.0042697978437058418 0.011101299752355426 0.0017810805710784872 -0.0029950153531676459 0.00086132254072582011 -0.004207127865642514 0.003221550499127411 0.004919244811787982 -0.0015207649778309403 -0.00042871109968383266 0.0035877502103884074 -0.0086528591640194653 -0.00079932549721442733 -0.0067027839820842086 -0.0028359664197555767 0.00088639186540058284 -0.0049891221093581843
leaf_count=712 315 363 1413 1378 155 90 286 54 720 392 3293 1178 6 51 274 1500 328 441 1253 606 168 90 359 111 822 181 976 1929 425 85 1513 202 668 593 314 312 408 240 233
internal_value=0 -0.256083 0.191035 0.24474 0.306853 0.653407 1.16087 0.12671 -0.131642 -0.400917 0.240405 0.236828 0.315745 -0.0267059 -0.0813334 -0.0452322 -0.000645779 -0.326078 0.145937 0.402676 -0.29063 -0.000427077 -0.519862 0.342486 0.0813569 0.0497355 0.0984537 -0.320922 0.0412561 -0.00686536 -0.1384 -0.305158 0.131276 -0.440308 -0.192319 -0.241138 -0.300772 -0.106797 -0.507959
internal_count=24437 10629 13808 10786 7067 1137 376 3719 5717 4912 5930 2165 3299 1554 4432 3712 3022 3015 2631 761 2623 1503 1897 1289 876 2393 1825 2370 1925 253 1787 1285 1644 1185 629 922 720 568 826
shrinkage=0.015


Tree=9
num_leaves=40
num_cat=0
split_feature=46 46 47 46 13 40 46 38 0 47 19 19 47 13 19 6 47 31 23 18 0 31 47 24 38 47 23 38 23 32 8 9 19 47 7 31 11 31 13
split_gain=1165.21 141.247 119.443 114.202 63.27 61.6795 57.6168 45.4724 44.633 33.5641 30.4952 29.0538 25.6604 23.5843 21.8805 21.5047 20.3959 18.3512 17.3511 17.2783 17.2137 16.166 15.2377 15.0514 14.4981 17.6125 14.2026 12.5193 11.9409 11.5631 11.5344 10.0697 10.0034 9.79012 9.56977 9.16983 9.09179 9.03601 9.01248
threshold=1.0249999761581423 1.4149999618530276 1.0950000286102297 0.70499998331069957 5.2650001049041757 11.949999809265138 4.4749999046325692 11.34999990463257 4.2049999237060556 1.1749999523162844 20.349999427795414 22.150000572204593 1.075000047683716 5.1749999523162851 19.94999980926514 345.00500488281256 1.185000002384186 2.304999947547913 25.804999351501468 8.8099999427795428 4.9649999141693124 2.054999947547913 1.3550000190734866 317.50000000000006 34.549999237060554 0.84499999880790722 128.65999603271487 29.700000762939457 14.175000190734865 2.2949999570846562 3.3249999284744267 11.795000076293947 20.94999980926514 1.4650000333786013 50.305000305175788 3.495000004768372 17.154999732971195 2.2150000333786015 4.9949998855590829
decision_type=2 2 2 2 8 8 2 8 8 2 8 8 2 8 8 10 2 10 8 8 8 10 2 10 8 2 10 10 8 10 8 10 8 2 10 10 10 10 8
left_child=3 4 18 10 12 13 7 -7 27 -6 33 30 -2 19 -14 -16 -12 22 35 -4 32 34 -13 -15 37 -26 -8 -5 -22 -19 31 -10 -11 -1 -18 -3 -29 -20 -32
right_child=1 2 5 8 9 6 26 -9 11 20 16 17 14 23 15 -17 21 29 24 -21 28 -23 -24 -25 25 -27 -28 36 -30 -31 38 -33 -34 -35 -36 -37 -38 -39 -40
leaf_value=-0.011043145803610393 -0.0043435127758012721 -0.0024825838531331167 -0.001602746752614621 -0.005454809600315318 -0.0009444386632428115 -0.0030515486684360321 -0.0024725648706352952 0.0044291879265896585 -0.0028632881665408023 -0.0024107389470396962 -0.0090938783612712713 -0.0030155195548618946 -0.0040655894110409249 -0.0017171540264971552 -0.00097373441470895617 0.0018621584626855767 -0.0081429930148768197 0.018618118319660423 -0.0029597900464792145 0.007362646828326185 -0.0010278436946480169 -0.0020825632440502799 -0.00032669935935764787 0.011634387816462203 -0.0028031320964797641 0.0023528866606307344 0.0051180150567625574 -0.0052162654488675398 0.0054806359437726037 0.0021414333691430767 -0.0059026040424172976 0.0032356723869004502 0.0025464929076227938 -0.0078504552868837625 -0.0052293508628239501 0.012813751598199209 0.001863347183643782 0.001212544954270629 -0.0030984755173182835
leaf_count=341 422 436 64 1663 502 188 378 6645 278 107 357 884 323 20 1626 955 315 10 275 198 69 315 1023 379 167 1388 65 71 785 230 579 78 636 590 1302 9 96 203 465
internal_value=0 0.15748 0.225632 -0.299792 0.0266398 0.28547 0.2589 0.281558 -0.210601 0.162582 -0.44873 -0.14516 -0.0591517 0.577944 -0.0256684 0.00503859 -0.386666 -0.0720764 0.0339738 0.344842 0.233479 -0.346089 -0.104874 0.731009 0.0731231 0.119944 -0.0905882 -0.337443 0.330318 0.188531 -0.257239 -0.1018 0.122173 -0.601323 -0.386463 -0.144881 -0.0764365 -0.0791905 -0.310243
internal_count=24437 15840 10415 8597 5425 7937 7276 6833 5377 2099 3220 3547 3326 661 2904 2581 2289 2147 2478 262 1597 1932 1907 399 2033 1555 443 1830 854 240 1400 356 743 931 1617 445 167 478 1044
shrinkage=0.015


Tree=10
num_leaves=40
num_cat=0
split_feature=46 46 46 47 46 13 39 35 19 31 47 1 47 19 30 19 39 47 23 6 47 1 47 23 46 13 47 31 0 23 16 18 35 8 38 23 7 47 0
split_gain=1116.25 139.8 125.185 113.622 60.9727 55.5716 53.6148 107.955 49.8616 47.5115 28.5583 28.4721 27.8771 28.6318 27.4997 26.9768 22.4291 21.2361 20.4652 20.312 19.8356 17.0424 18.2041 16.5639 15.1133 14.7926 14.7389 14.273 14.2302 13.7723 13.7273 13.2854 13.1267 13.066 12.9616 12.1606 11.8526 11.5601 10.7748
threshold=1.044999957084656 1.4750000238418581 0.6850000023841859 1.1449999809265139 4.4749999046325692 5.2149999141693124 26.400000572204593 64.920001983642592 22.150000572204593 1.1050000190734866 1.4450000524520876 202.50000000000003 1.075000047683716 20.94999980926514 36.149999618530281 21.650000572204593 0.15949999541044238 1.3450000286102297 29.304999351501468 345.00500488281256 1.1950000524520876 217.50000000000003 1.5249999761581423 19.175000190734867 0.80500000715255748 3.9250000715255742 0.99500000476837169 2.2350000143051152 4.8849999904632577 47.80999946594239 66.149997711181655 13.219999790191652 53.45000076293946 3.2849999666213994 15.050000190734865 17.704999923706058 48.989999771118171 1.3949999809265139 8.4849996566772479
decision_type=2 2 2 2 2 8 8 8 8 10 2 10 2 8 10 8 10 2 8 8 2 10 2 10 2 10 2 10 8 10 10 8 8 10 8 10 10 2 8
left_child=2 5 15 18 6 12 9 -8 21 -5 26 34 -2 -14 17 37 -13 23 30 -15 -17 22 35 -10 -19 -20 -7 -27 29 -12 -3 38 -28 -30 -6 -4 -22 -1 -16
right_child=1 3 8 4 11 10 7 -9 14 -11 28 16 13 19 31 20 -18 24 25 -21 36 -23 -24 -25 -26 27 32 -29 33 -31 -32 -33 -34 -35 -36 -37 -38 -39 -40
leaf_value=-0.010491182631777712 -0.0041988440491343383 -0.0015366830781812411 -0.0076844144428936311 -0.0032347584049847648 -0.0081008439633221199 -0.0032845975327546952 0.013299632409458525 0.0052234520588614799 -0.00498302934235232 0.0039222219449346271 0.0014295535756894374 0.019680944425458816 -0.0032494025825454786 -0.00059728085620069764 -0.00013729804209400702 -0.009218735362351559 0.0022986258209118102 -0.0033306487281217294 0.0052524589470535525 0.0022538430902071999 -0.0080685884167719119 -0.0022732523585192628 -0.0038124625912849689 -0.0014746031698561017 -0.00030459186038138506 0.00076170128873892344 0.0060161944765967264 0.0036461637893252354 0.0081400591458009319 0.0097099857661626567 0.0056133721356639976 0.010116513059474528 0.0010080991211732502 0.0032724696328946803 -0.0011380928194277328 -0.0039279508580628087 -0.0039593352517044338 -0.0074578932850413787 0.0069174552051964296
leaf_count=396 442 714 738 232 77 162 417 3482 905 2078 397 23 544 1369 426 253 61 551 259 954 187 541 968 455 1139 1607 131 508 288 51 66 36 1165 218 275 263 1016 988 55
internal_value=0 0.162199 -0.281767 0.234718 0.308905 0.037987 0.334288 0.405814 -0.200768 0.213562 0.153425 -0.0525784 -0.0461585 -0.0101194 -0.124783 -0.455088 0.470538 -0.160933 0.0784186 0.0382405 -0.360066 -0.30875 -0.351942 -0.25395 -0.0860796 0.124591 0.065407 0.0969679 0.287944 0.158146 -0.0621119 0.0884804 0.100955 0.402864 -0.177413 -0.446497 -0.30654 -0.555053 0.0446252
internal_count=24437 15520 8917 9799 6645 5721 6209 3899 6077 2310 2412 436 3309 2867 3567 2840 84 3050 3154 2323 1456 2510 1969 1360 1690 2374 1458 2115 954 448 780 517 1296 506 352 1001 1203 1384 481
shrinkage=0.015


Tree=11
num_leaves=40
num_cat=0
split_feature=46 46 46 47 46 13 13 16 19 19 12 1 47 19 47 30 47 39 47 13 23 47 40 13 23 0 23 40 40 28 35 46 38 8 24 31 18 13 40
split_gain=1083.17 128.992 128.296 110.239 59.1572 52.4166 50.4985 42.3526 37.097 35.0342 28.664 27.6244 27.5801 28.9422 27.2574 24.2116 21.9146 21.7612 21.0783 20.4521 20.1683 19.9667 20.356 18.3894 17.6833 16.0092 15.908 15.6468 14.3115 13.3598 13.1268 12.9449 12.5757 12.0931 12.0871 11.9082 11.3664 10.9198 12.1281
threshold=1.0549999475479128 1.4750000238418581 0.78499999642372142 1.1449999809265139 4.4749999046325692 5.3949999809265146 5.2149999141693124 83.050003051757827 22.150000572204593 20.550000190734867 59.329999923706062 202.50000000000003 1.075000047683716 20.94999980926514 1.185000002384186 36.149999618530281 1.3450000286102297 0.15949999541044238 1.435000002384186 5.2650001049041757 18.394999504089359 0.99500000476837169 13.050000190734865 3.9450000524520878 13.619999885559084 6.5350000858306894 11.444999694824221 14.449999809265138 14.550000190734865 48.619998931884773 66.850002288818374 0.60500001907348644 15.050000190734865 2.9550000429153447 321.50000000000006 2.9850000143051152 13.050000190734865 5.0450000762939462 13.550000190734865
decision_type=2 2 2 2 2 8 8 8 8 8 8 10 2 8 2 10 2 10 2 8 10 2 8 10 10 8 8 8 8 10 10 2 8 8 10 10 8 8 8
left_child=2 6 9 21 5 7 12 -5 33 24 -7 32 -2 -14 -8 18 28 -13 27 -18 -15 29 34 -24 -1 -21 -16 -11 -10 -3 -30 -20 -6 -4 -23 -28 -17 38 -35
right_child=1 3 8 4 11 10 14 -9 16 15 -12 17 13 20 26 36 19 -19 31 25 -22 22 23 -25 -26 -27 35 -29 30 -31 -32 -33 -34 37 -36 -37 -38 -39 -40
leaf_value=-0.0091613651039766739 -0.0041224499616616802 -0.00090574745386749864 -0.0016676212086575105 0.0058330291165067903 -0.0079793312507016323 0.0059733968242903536 -0.00047380707958363929 0.0024001782274403935 0.00031294431356759572 -0.0030475167920297683 0.01112617639642768 0.019385730360999054 -0.0032133614868688591 -0.00057119795500788122 -0.0051039408044423907 -0.0025171664233811283 -0.0015292850629059255 0.0022641464298377273 -0.0061665430402700139 0.00060527930785618468 0.0022959533137428497 -0.0063127685811681048 0.0059388821226063412 0.0008716963018945129 -0.0057032971425573812 0.0060533851024157656 0.0032415406821746057 -0.0078252275067371476 -0.0030289817387080384 0.004332856693702032 -0.0095042495243098154 -0.0032468108817727552 -0.0011210214593278412 -0.0020815663798046963 0.0063522472937919483 0.010101378075778484 0.0067384838484576904 -0.0030385034456595454 -0.0066639107403226915
leaf_count=880 436 1072 375 1302 77 2504 600 2134 281 183 269 23 531 1264 50 445 881 61 553 475 980 18 181 1469 535 163 1629 981 963 122 76 894 275 161 292 59 32 537 674
internal_value=0 0.162209 -0.273391 0.231197 0.304271 0.329274 0.0403836 0.246732 -0.155663 -0.39329 0.43155 -0.0517897 -0.0410182 -0.0042824 0.15218 -0.333582 -0.0851094 0.46348 -0.371428 -0.00320784 0.0453963 0.0772423 0.139343 0.0951701 -0.523593 0.133146 0.215622 -0.471606 -0.179358 -0.0246986 -0.233509 -0.290843 -0.174752 -0.270316 0.374457 0.232087 -0.126416 -0.313814 -0.385358
internal_count=24437 15348 9089 9799 6645 6209 5549 3436 4586 4503 2773 436 3211 2775 2338 3088 2839 84 2611 1519 2244 3154 1960 1650 1415 638 1738 1164 1320 1194 1039 1447 352 1747 310 1688 477 1372 835
shrinkage=0.015


Tree=12
num_leaves=40
num_cat=0
split_feature=46 46 46 47 46 13 39 35 31 0 13 47 39 24 29 1 47 39 47 7 21 47 40 13 31 39 12 47 0 46 28 13 8 35 40 38 24 38 6
split_gain=1050.93 131.553 118.625 106.957 57.3958 52.3535 51.8602 104.408 46.091 43.4684 31.0251 27.3358 27.1574 34.9717 30.31 26.8018 22.6409 21.1133 19.6428 19.5832 19.4422 19.3722 19.7499 17.8419 16.6163 16.4402 14.1308 14.0798 13.7809 13.1123 12.962 12.8435 12.684 12.6617 12.6399 12.2013 11.7272 11.7217 11.1992
threshold=1.044999957084656 1.4750000238418581 0.6850000023841859 1.1449999809265139 4.4749999046325692 5.2149999141693124 26.400000572204593 64.920001983642592 1.1050000190734866 4.1749999523162851 4.9949998855590829 1.4450000524520876 0.22250000387430194 324.50000000000006 1.0000000180025095e-35 202.50000000000003 1.3650000095367434 0.15949999541044238 1.2050000429153445 54.004999160766609 59.649999618530281 0.99500000476837169 13.050000190734865 3.9450000524520878 2.1350001096725468 0.41750000417232519 30.57499980926514 0.99500000476837169 4.8849999904632577 0.90500000119209301 48.619998931884773 4.7750000953674325 3.2849999666213994 53.45000076293946 12.510000228881838 15.050000190734865 321.50000000000006 14.150000095367433 369.97499084472662
decision_type=2 2 2 2 2 8 8 8 10 8 8 2 8 10 10 10 2 10 2 10 8 2 8 10 10 8 8 2 8 2 10 10 10 8 8 8 10 8 8
left_child=2 5 18 21 6 12 8 -8 -5 29 24 27 31 19 -15 35 -12 -17 -1 -14 34 30 36 -24 37 -26 -18 -7 -13 -4 38 -2 -30 -29 -20 -6 -23 -11 -3
right_child=1 3 9 4 15 11 7 -9 -10 10 16 28 13 14 -16 17 26 -19 20 -21 -22 22 23 -25 25 -27 -28 33 32 -31 -32 -33 -34 -35 -36 -37 -38 -39 -40
leaf_value=-0.0096178757365609803 -0.0045436490217978069 -0.0027510481635987737 -0.0056815370897585525 -0.0032572103278603048 -0.0078596413153671218 -0.0032269121030225911 0.013013162318995665 0.0050707561282375231 0.0037919724882347059 -0.006324723056759538 -0.0026933094789318864 0.0022921572575900686 -0.0037216564355346941 0.0089893883467563069 0.0013278028520269146 0.019094944435941136 -0.0002557144637521217 0.0022301841719595135 -0.0041164394067347903 -5.7930438977507118e-05 -0.00444295994132499 -0.0062180769769474868 0.0058497988517159458 0.00085862086595317737 -0.0017927985270714947 0.0072880274989589478 0.0038831629451480695 0.0058848909635580227 0.0079707303348641283 -0.0031289824364210059 0.0042678638521513185 -0.00085177678596078143 0.0031748345578270919 0.00096630398958672599 -0.0078259440030677436 -0.0011042061190374873 0.0062569635334402346 -0.0033227114673617564 0.000372348044462302
leaf_count=422 493 434 1250 232 77 162 417 3482 2078 381 844 448 432 152 493 23 1060 61 249 1367 953 18 181 1469 292 53 225 131 288 710 122 372 218 1165 1216 275 292 1262 638
internal_value=0 0.157382 -0.273399 0.227729 0.299707 0.0368892 0.324335 0.39468 0.2056 -0.19455 -0.136195 0.148935 -0.0447836 0.00911204 0.208888 -0.0510129 -0.0523093 0.456528 -0.442118 -0.0625142 -0.407375 0.0760837 0.137253 0.0937425 -0.22603 -0.0265182 0.0312661 0.0628214 0.280543 -0.317126 -0.0243282 -0.197062 0.393634 0.0975651 -0.479697 -0.172131 0.36884 -0.267924 -0.0594774
internal_count=24437 15520 8917 9799 6645 5721 6209 3899 2310 6077 4117 2412 3309 2444 645 436 2129 84 2840 1799 2418 3154 1960 1650 1988 345 1285 1458 954 1960 1194 865 506 1296 1465 352 310 1643 1072
shrinkage=0.015


Tree=13
num_leaves=40
num_cat=0
split_feature=46 47 46 46 39 35 37 31 23 12 46 19 19 19 6 46 40 23 39 30 46 31 30 13 47 40 47 39 3 16 35 13 40 39 8 29 39 13 12
split_gain=1019.84 121.609 121.586 115.868 62.7224 143.493 72.4537 63.1813 43.8326 43.3979 40.371 35.8662 33.8299 32.1296 21.6734 21.5156 21.2928 20.6095 20.2521 24.6666 20.0843 20.0699 19.8027 17.8753 16.627 16.5588 13.9807 15.7626 13.267 13.0764 11.766 11.0898 10.8813 10.4619 10.3023 11.0273 9.60802 15.9181 9.15812
threshold=1.0549999475479128 1.1549999713897707 0.78499999642372142 1.3149999976158144 26.400000572204593 64.920001983642592 1.0199999809265139 1.1050000190734866 25.265000343322757 83.189998626708999 4.4749999046325692 22.150000572204593 21.750000000000004 20.849999427795414 312.00500488281256 3.3349999189376835 12.84999990463257 13.619999885559084 0.23050000518560412 27.835000038146976 1.6549999713897707 2.8349999189376835 36.149999618530281 5.2750000953674325 1.435000002384186 14.750000000000002 0.99500000476837169 0.16149999946355822 7.0050001144409189 53.049999237060554 57.45000076293946 5.0950000286102304 14.329999923706056 0.33249999582767492 5.9049999713897714 7.3500001430511483 0.070500001311302199 4.5950000286102304 57.010000228881843
decision_type=2 2 2 2 8 8 8 10 8 8 2 8 8 8 8 2 8 10 8 10 2 10 10 8 2 8 2 8 10 10 8 8 8 8 10 8 10 8 8
left_child=2 8 12 13 7 6 -6 15 25 -9 -7 30 16 -3 -13 -5 -1 -18 38 -20 34 23 24 -15 32 28 29 -28 -2 -22 36 -32 -14 -23 35 -10 37 -4 -16
right_child=1 3 11 4 5 10 -8 9 20 -11 -12 14 22 21 18 -17 17 -19 19 -21 26 33 -24 -25 -26 -27 27 -29 -30 -31 31 -33 -34 -35 -36 -37 -38 -39 -40
leaf_value=-0.0037805199531958547 -0.0015614242114136521 -0.0027433401167703169 0.014399970937520264 -0.0025640519565751723 0.0079293100982376387 0.0046699257202699887 0.019253001249940369 0.0026122957661014858 -0.0030291342181329316 0.0098973132352620802 -0.0015115649431356273 -0.0026174569605224413 -0.0026040100303579318 1.0463128887260188e-05 -0.0035376994050508094 -0.014402965143963229 -0.0090259985676757141 -0.0057135753880822706 -0.00012387043446477792 0.0052889281428186398 -0.00088594495087896351 0.0048141099719673786 -0.0012635669451589843 0.0027200804882659955 -0.0038013493400354862 -0.003320072112307516 -0.0016202962160464524 0.0033877581192453517 0.0059312382697620809 0.002883984266761821 -0.005553554277315232 -0.0027518818152270147 -0.0072293419730492447 0.015275337245315313 -0.0044062155293067918 0.00082419343278991206 -0.0027351783778013145 -0.0012091334761899649 0.0037688808340232732
leaf_count=364 142 513 21 253 307 4195 217 2439 212 199 252 1328 134 1365 377 40 1106 684 847 244 583 76 363 915 1068 843 159 1278 85 321 905 490 784 30 135 789 282 49 43
internal_value=0 0.157396 -0.265279 0.215151 0.277885 0.346297 0.841247 0.161859 0.0202048 0.21079 0.287976 -0.15067 -0.382 0.0441521 -0.0812975 -0.278686 -0.472515 -0.51735 0.000614578 0.0724461 0.0746708 0.092967 -0.299 0.0731917 -0.338254 -0.156784 0.127614 0.188909 0.0829466 0.0301809 -0.263406 -0.30463 -0.436946 0.518322 -0.0344323 0.000540271 -0.100032 0.231573 -0.185976
internal_count=24437 15348 9089 10801 7902 4971 524 2931 4547 2638 4447 4586 4503 2899 2839 293 2154 1790 1511 1091 3477 2386 2349 2280 1986 1070 2341 1437 227 904 1747 1395 918 106 1136 1001 352 70 420
shrinkage=0.015


Tree=14
num_leaves=40
num_cat=0
split_feature=46 46 46 39 24 31 29 16 13 46 1 6 19 11 0 39 24 39 30 39 31 7 18 23 12 46 23 35 0 1 23 23 13 46 40 8 8 7 7
split_gain=989.478 118.998 117.966 59.9734 96.517 69.0342 66.2859 58.1432 46.6291 39.9129 36.9719 34.9194 32.8398 30.2641 25.1397 24.6035 33.2968 28.6655 22.7429 22.7387 28.0885 17.6821 17.2862 16.6274 16.489 16.2202 15.8749 14.8005 13.9893 13.6859 14.9589 13.1322 12.6156 12.0978 11.9957 12.6918 11.8779 11.5719 11.3872
threshold=1.0549999475479128 1.4750000238418581 0.78499999642372142 0.31250000000000006 327.50000000000006 1.1050000190734866 0.031499999575316913 42.899999618530281 5.2149999141693124 4.4749999046325692 250.50000000000003 312.00500488281256 20.550000190734867 56.829999923706062 7.6050000190734872 0.22250000387430194 324.50000000000006 0.22450000047683719 36.149999618530281 0.23050000518560412 2.0949999094009404 54.004999160766609 6.5199999809265146 13.619999885559084 29.144999504089359 3.3349999189376835 11.444999694824221 67.750000000000014 3.685000061988831 211.50000000000003 97.064998626708999 18.590000152587894 4.7750000953674325 0.51499998569488536 15.150000095367433 5.5950000286102304 4.8450000286102304 47.014999389648445 113.90000152587892
decision_type=2 2 2 8 10 10 10 10 8 2 10 8 8 8 8 8 10 10 10 8 10 10 10 10 8 2 8 8 8 10 10 10 10 2 10 8 10 10 8
left_child=2 8 12 5 9 25 7 -6 15 13 14 28 23 -5 -7 32 21 -18 31 34 36 -17 -8 -1 -12 27 -10 -3 -4 30 -28 37 -2 -33 35 -13 -21 -14 -11
right_child=1 3 11 4 6 10 22 -9 26 38 24 19 18 -15 -16 16 17 -19 -20 20 -22 -23 -24 -25 -26 -27 29 -29 -30 -31 -32 33 -34 -35 -36 -37 -38 -39 -40
leaf_value=-0.0088042312512314463 -0.0044042311633484032 -0.0087724225009205153 -0.0054032404216363336 0.0033210193602916591 0.0094411741387381461 0.00093790676427426016 0.026656068563461303 0.023486741074951939 -0.0053070654391100805 -0.0017468505963067725 0.0037697388336642972 0.0025956250640488828 -0.0087287798550653647 0.0069416293676142823 0.0061611982873435341 -0.0036017408090512474 0.0078660477972020588 0.00096358829346147065 -0.0017651768341739574 0.00022516934428007361 0.0052559977734432869 -4.599766652841805e-05 0.0057358138779310154 -0.0054509964513115875 0.0085423403875729831 -0.012516525736358017 0.0015837839437331672 -0.0012724620593627068 -0.0027852217576048478 0.0046812771624188875 0.010537949398506519 -0.0091639772212753698 -0.00069382946592889396 -0.0026139389702120623 -0.0049405090139518267 -0.0047098548602192633 -0.0030607260251521696 -0.0054509644924063162 0.0089017576150945393
leaf_count=880 479 81 605 4456 183 2023 9 104 62 386 494 126 282 588 231 412 198 428 477 940 212 1332 707 535 243 50 1768 220 1906 465 43 72 362 534 368 93 336 1723 24
internal_value=0 0.155035 -0.2613 0.221297 0.27758 0.112554 0.562677 0.968724 0.0380241 0.22515 0.161789 -0.14841 -0.37627 0.249539 0.0982142 -0.0401969 0.0119468 0.209786 -0.318462 -0.0524192 0.0133301 -0.0590667 0.399919 -0.502427 0.356222 -0.306996 0.145452 -0.219382 -0.227734 0.159053 0.119759 -0.355143 -0.187142 -0.226144 -0.219089 -0.0337801 -0.0426721 -0.394132 -0.0749012
internal_count=24437 15348 9089 9799 6457 3342 1003 287 5549 5454 2991 4586 4503 5044 2254 3211 2370 626 3088 2075 1488 1744 716 1415 737 351 2338 301 2511 2276 1811 2611 841 606 587 219 1276 2005 410
shrinkage=0.015


Tree=15
num_leaves=40
num_cat=0
split_feature=46 46 47 46 19 46 46 23 38 19 23 47 47 47 35 23 47 6 47 13 38 5 39 47 13 16 21 3 39 1 47 12 21 19 16 47 40 1 6
split_gain=968.331 120.959 117.121 106.001 56.2131 54.1002 48.2493 46.8821 43.3244 34.8895 24.7978 21.8024 21.0413 19.8729 18.8403 18.1617 17.7576 16.9412 16.7359 15.4157 15.3072 25.2186 14.8229 14.5628 14.4718 15.7666 13.9457 13.3195 13.2607 13.2423 12.342 11.324 11.2765 11.1462 10.4241 10.8802 10.2958 10.2153 9.65942
threshold=1.044999957084656 0.65500000119209301 1.1549999713897707 1.3350000381469729 22.150000572204593 4.4749999046325692 1.6549999713897707 20.005000114440922 11.34999990463257 22.750000000000004 19.005000114440922 0.97500002384185802 1.3450000286102297 1.0950000286102297 60.049999237060554 15.494999885559084 3.1600000858306889 325.06500244140631 1.4149999618530276 5.6549999713897714 33.850000381469734 124.50000000000001 0.080499999225139632 0.94499999284744274 5.5250000953674325 41.20000076293946 59.649999618530281 9.6949996948242205 0.17249999940395358 217.50000000000003 1.1250000000000002 12.545000076293947 70.250000000000014 19.94999980926514 51.750000000000007 0.86500000953674328 14.449999809265138 169.19999694824222 264.27999877929693
decision_type=2 2 2 2 8 2 2 8 8 8 10 2 2 2 8 10 2 8 2 8 8 10 10 2 8 10 8 10 8 10 2 10 8 10 10 2 8 10 8
left_child=1 18 6 9 13 7 23 27 -9 19 12 34 36 -3 22 29 -16 -14 -1 33 37 -22 -7 -2 25 -11 38 -5 -25 -15 -12 -26 -30 -4 35 -8 -6 -13 -20
right_child=2 4 3 5 10 14 11 8 -10 24 30 20 17 15 16 -17 -18 -19 26 -21 21 -23 -24 28 31 -27 -28 -29 32 -31 -32 -33 -34 -35 -36 -37 -38 -39 -40
leaf_value=-0.0084913888624786136 -0.0048312493897052864 -0.0091581063061777039 -0.0046922027262138897 0.00091696423634304663 -0.0012055972819407918 0.020052905655824221 -0.0049478602141191782 -0.0027009169242598794 0.0050915858982091 -1.6697936352305157e-05 -0.0030683698779872446 -0.0030214679444740397 -0.00246093421658125 -0.0057085113722825159 -0.0030023572400006576 -0.0023770005015434181 0.023021849412471054 0.0010308372721986167 -0.0082144251655357665 0.0023869206283436066 0.0018598757549031116 0.0063255674576701074 0.0026309647989577389 -0.0045455801193687827 0.0095082037848040028 0.0034290957473231722 -0.0039804194239638213 0.0047756339305280041 -0.0020832477898074498 -0.0025182220825304431 0.00081982934946266909 0.0031586424206287355 0.00080341600899223159 -0.0010689519114242538 0.0015933514709685842 -0.00037290611640246302 -0.0048494682496690788 0.0015430793766468269 -0.0052371236771425649
leaf_count=861 288 191 258 1000 219 13 168 165 5928 901 226 157 967 1374 352 871 6 462 574 219 951 406 71 218 71 447 556 252 566 372 981 575 659 736 334 385 858 371 428
internal_value=0 -0.263223 0.150056 0.205694 -0.192377 0.268708 0.0142187 0.289155 0.325371 0.052686 -0.111636 0.0960174 -0.168352 -0.299141 -0.0710728 -0.276414 -0.17108 -0.0888023 -0.454203 -0.0810443 0.156854 0.213064 0.355148 -0.116773 0.134038 0.0750624 -0.39237 0.112909 -0.075796 -0.335253 0.00611991 0.2571 -0.035356 -0.13396 -0.0332679 -0.117518 -0.273901 0.0123879 -0.462846
internal_count=24437 8940 15497 10994 6521 7787 4503 7345 6093 3207 3713 2772 2506 2808 442 2617 358 1429 2419 1213 1885 1357 84 1731 1994 1348 1558 1252 1443 1746 1207 646 1225 994 887 553 1077 528 1002
shrinkage=0.015


Tree=16
num_leaves=40
num_cat=0
split_feature=46 46 47 46 19 46 46 13 23 19 40 23 47 47 47 24 39 23 35 23 47 47 0 13 13 31 39 47 21 35 39 24 47 39 8 16 47 46 19
split_gain=939.499 117.357 113.634 102.845 54.5394 52.4894 46.8127 45.6292 46.0996 33.8506 32.6497 24.0595 21.1532 20.4277 19.2812 18.4225 24.2413 19.3136 18.2793 17.6209 17.2288 16.2376 15.0756 14.9567 14.8609 18.4894 14.3815 14.1292 13.5305 12.9365 12.8659 12.4303 11.9745 10.8704 10.437 10.1137 10.5562 9.52987 9.36992
threshold=1.044999957084656 0.65500000119209301 1.1549999713897707 1.3350000381469729 22.150000572204593 4.4749999046325692 1.6549999713897707 5.1949999332427987 30.784999847412113 22.750000000000004 11.949999809265138 19.005000114440922 0.97500002384185802 1.3550000190734866 1.0950000286102297 328.50000000000006 0.39350000023841863 17.304999351501468 60.049999237060554 15.494999885559084 3.1600000858306889 1.4149999618530276 6.0850000381469735 5.6549999713897714 4.1649999618530282 2.2050000429153447 0.080499999225139632 0.94499999284744274 59.649999618530281 50.049999237060554 0.17249999940395358 324.50000000000006 1.1250000000000002 0.22049999982118609 4.1649999618530282 51.750000000000007 0.86500000953674328 0.78499999642372142 21.750000000000004
decision_type=2 2 2 2 8 2 2 8 10 8 8 10 2 2 2 10 8 10 8 10 2 2 8 8 10 10 10 2 8 8 8 10 2 8 8 10 2 2 8
left_child=1 21 6 9 14 7 27 8 -5 23 -9 13 35 37 -3 17 -17 -11 26 29 -20 38 -15 33 -14 -26 -7 -2 -23 -16 -29 -32 -13 -4 -21 36 -8 -6 -1
right_child=2 4 3 5 11 18 12 10 -10 15 -12 32 24 22 19 16 -18 -19 20 34 -22 28 -24 -25 25 -27 -28 30 -30 -31 31 -33 -34 -35 -36 -37 -38 -39 -40
leaf_value=-0.010175179193987707 -0.0047587806363299026 -0.0090207346815966965 -0.0047071819771307439 0.0018434299707244149 -0.006338417104936574 0.019752112042445404 -0.0048736422969627054 0.0096287054113465415 0.0056175063056780553 -0.00065412691997194323 0.0049354573819753939 -0.0030223443634721527 0.0056848103423493314 -0.0021181087691047856 -0.0006468373235838954 0.0022109905885203799 0.008778731968564291 0.0028877918740829707 -0.0029573217833653458 -0.0002893422666538219 0.02267652237555012 -0.0068385433836409279 0.0016209999468611176 0.0023511168125965824 0.0009113989120318718 0.0046931979554277747 0.0025915003724028946 -0.0044773964392055476 -0.003920713161901828 -0.005340464769329349 -0.0015375952028727487 0.001726530817272939 0.0008075319128891111 -0.0010772461826510046 -0.0036552458693731131 0.0015694511996465037 -0.00036731252540394286 -0.0031781732001392908 -0.007012076282434063
leaf_count=368 288 191 247 2366 292 13 168 368 1052 729 3559 226 255 1091 144 425 180 660 352 340 6 1002 312 219 1251 379 71 218 556 1602 844 381 981 747 531 334 385 811 493
internal_value=0 -0.259274 0.147805 0.202608 -0.189492 0.264678 0.0140054 0.284818 0.200335 0.0518957 0.358351 -0.109961 0.0945772 -0.165827 -0.294654 0.132027 0.277669 0.0685906 -0.0700067 -0.272268 -0.168514 -0.44739 -0.0857736 -0.0798286 0.154501 0.119382 0.349821 -0.115021 -0.386484 -0.330224 -0.074659 -0.0348257 0.00602811 -0.13195 -0.15609 -0.0327689 -0.115755 -0.267653 -0.557601
internal_count=24437 8940 15497 10994 6521 7787 4503 7345 3418 3207 3927 3713 2772 2506 2808 1994 605 1389 442 2617 358 2419 1403 1213 1885 1630 84 1731 1558 1746 1443 1225 1207 994 871 887 553 1103 861
shrinkage=0.015


Tree=17
num_leaves=40
num_cat=0
split_feature=46 46 46 47 46 19 47 38 19 13 6 47 0 20 0 31 40 13 35 47 47 9 24 47 12 38 13 39 21 0 38 11 47 6 13 6 19 5 13
split_gain=911.705 124.751 102.491 98.0816 57.066 49.364 45.6666 43.0942 42.124 36.6886 31.4312 25.0043 21.3804 21.3587 20.76 21.2693 20.2424 18.5346 18.2208 16.8861 16.8709 16.655 15.8946 15.7541 15.3015 16.3645 14.5892 13.9533 13.1276 13.0672 12.5467 11.6282 10.2695 9.59371 9.5007 9.37181 9.09093 8.34349 8.335
threshold=1.0149999856948855 1.4149999618530276 0.65500000119209301 1.1749999523162844 4.4749999046325692 22.150000572204593 1.1250000000000002 11.34999990463257 19.94999980926514 5.3550000190734872 345.00500488281256 0.95499998331069957 4.9949998855590829 74.319999694824233 5.2950000762939462 1.8024999499320986 14.329999923706056 3.9450000524520878 60.049999237060554 1.1050000190734866 3.1600000858306889 13.305000305175783 318.50000000000006 1.4149999618530276 22.105000495910648 19.250000000000004 5.6050000190734872 0.080499999225139632 59.649999618530281 5.6649999618530282 18.349999427795414 83.08499908447267 1.4650000333786013 315.36000061035162 5.1649999618530282 264.27999877929693 21.750000000000004 113.50000000000001 5.9449999332427987
decision_type=2 2 2 2 2 8 2 8 8 8 10 2 8 8 8 10 8 10 8 2 2 10 10 2 8 8 8 10 8 8 10 8 2 8 8 8 8 10 8
left_child=2 6 23 11 7 19 -2 13 38 -9 12 31 -10 -5 30 32 22 -18 27 -4 -20 -17 -13 36 25 -21 -12 -6 35 -26 34 33 -16 -3 -7 37 -1 -25 -8
right_child=1 3 5 4 18 14 8 9 10 -11 26 16 -14 -15 15 21 17 -19 20 24 -22 -23 -24 28 29 -27 -28 -29 -30 -31 -32 -33 -34 -35 -36 -37 -38 -39 -40
leaf_value=-0.010022551406512755 -0.002542872955377347 -0.0050730365625468593 -0.0087671760366356474 0.0070665647965659825 0.01945583076431201 -0.0039627953084621593 -0.004504637352713301 0.0036308770434455265 -0.00071507539719975683 0.0059531076800515611 0.0023036714875425963 -0.0064982857932497197 0.0020149835844528621 -0.0056535700342604236 -0.0026791293217661868 0.00080034129860735953 0.0050822489696922676 0.0006508902666961336 -0.0030322758478999682 -0.0077205928025575543 0.022336374793667346 0.00813048804353457 0.0049047968068322177 -0.0095659743045082464 -0.0037261372224468587 -0.0041669927266637478 0.0057908621194219445 0.002552627818593362 -0.0038619024324688975 0.00037947688967920841 0.0010089554296439903 0.0051353811646901787 0.00037099785163090292 -0.0008420533803455355 -0.0017523789430591199 -0.0050559886718940239 -0.0069068951296054996 -0.0059151869685944887 0.0016298322189874756
leaf_count=368 1050 147 192 38 13 1108 354 3344 1548 2823 1079 29 1107 136 588 236 238 1972 348 379 6 99 533 326 577 1264 360 71 556 250 185 62 430 671 723 428 493 248 58
internal_value=0 0.139323 -0.266783 0.203793 0.274966 -0.197034 0.0182853 0.299079 0.0620493 0.312927 0.0927214 0.071679 0.0282147 -0.191707 -0.116614 -0.0207933 0.118301 0.0752076 -0.0741326 -0.298813 -0.173487 0.197771 0.287759 -0.440679 -0.276607 -0.332448 0.211738 0.344573 -0.380687 -0.165668 -0.180922 -0.0751788 -0.0927177 -0.106826 -0.205998 -0.449064 -0.549237 -0.532575 -0.242736
internal_count=24437 15987 8450 10431 6779 6031 5556 6341 4506 6167 4094 3652 2655 174 3369 1353 2772 2210 438 2662 354 335 562 2419 2470 1643 1439 84 1558 827 2016 880 1018 818 1831 1002 861 574 412
shrinkage=0.015


Tree=18
num_leaves=40
num_cat=0
split_feature=46 46 47 46 46 23 46 38 23 13 0 19 47 38 24 47 19 38 24 12 35 47 47 18 39 47 23 23 23 46 16 3 8 31 0 44 35 39 47
split_gain=884.805 110.562 107.383 94.6771 51.0701 48.6373 45.6945 41.9902 41.6972 30.5073 26.2383 25.1693 21.7556 21.007 32.2216 20.2763 20.1987 19.9029 27.3606 19.6375 17.6783 16.3686 15.271 13.8602 13.5379 13.0363 12.8114 12.0612 11.6611 11.4752 11.3184 10.53 12.3572 10.3824 10.228 10.0911 10.0284 9.97898 9.92777
threshold=1.044999957084656 0.7150000035762788 1.1749999523162844 1.3149999976158144 4.4749999046325692 17.005000114440922 1.6549999713897707 11.34999990463257 19.005000114440922 5.3949999809265146 4.1250000000000009 23.550000190734867 0.99500000476837169 19.250000000000004 323.50000000000006 1.4650000333786013 22.750000000000004 33.850000381469734 322.50000000000006 29.005000114440922 60.049999237060554 3.1600000858306889 0.94499999284744274 8.3499999046325701 0.080499999225139632 1.2250000238418581 12.885000228881838 11.444999694824221 25.994999885559086 0.60500001907348644 41.20000076293946 15.305000305175783 5.3949999809265146 1.9950000047683718 4.0450000762939462 137.50000000000003 66.250000000000014 0.17150000482797625 2.0349999666213994
decision_type=2 2 2 2 2 8 2 8 10 8 8 8 2 8 10 2 8 8 10 8 8 2 2 8 10 2 8 8 8 2 10 10 10 10 8 2 8 8 2
left_child=1 11 6 9 5 34 22 -7 10 16 -3 15 28 19 -15 36 -4 -14 -19 -12 24 -22 -2 -10 -6 -13 -24 -11 -8 -27 -18 -25 -33 -31 -5 -17 -1 -28 -29
right_child=2 8 3 4 20 7 12 -9 23 27 13 25 17 14 -16 35 30 18 -20 -21 21 -23 26 31 -26 29 37 38 -30 33 -32 32 -34 -35 -36 -37 -38 -39 -40
leaf_value=-0.0064986548206792021 -0.0046547912360741369 -0.0050151460702245682 -0.0020995848119268034 -0.0016088243619282897 0.019163992840510145 -0.0026272813179131064 -0.0040112285823870712 0.0048227619533389929 -0.0045480852363754013 -0.0067499553651681971 -0.0057821087831691981 -0.0069906559824683082 -6.2540699139935894e-05 -0.0027422073754994466 0.0016895706956054752 -0.006000526393166894 -8.0839781369100881e-05 0.0020782337933131379 0.0067682180040237773 0.00085439981458793307 -0.0029867917951723311 0.022001328635960816 -0.0065155671274987979 -0.00023185297307677709 0.0025143384225141834 -0.0048076880657315505 -0.003473997498904596 0.0028688125188214694 0.00041301950802074015 -0.0023638259248624813 0.0031176592824399487 0.014124950969964264 0.0013694497192692425 0.0038003611499322701 0.0019354253738623972 -0.0013863344932906329 -0.009674534769644914 -0.00010413636896581647 0.0098122674998428125
leaf_count=363 288 1321 849 277 13 175 158 6233 162 28 587 236 525 1478 492 1322 765 1025 385 121 348 6 87 1320 71 378 232 851 884 305 369 25 54 77 541 116 583 1338 49
internal_value=0 -0.251614 0.143439 0.200229 0.258544 0.278641 0.0214238 0.307954 -0.164906 0.0467007 -0.219012 -0.394245 0.0993048 -0.162122 -0.109026 -0.450022 -0.0233308 0.162037 0.223922 -0.30986 -0.0730206 -0.170884 -0.0977802 -0.0262977 0.339405 -0.260739 -0.0608391 0.196348 -0.0171891 -0.196986 0.0639961 0.00576736 0.3604 -0.0747538 0.0490155 -0.375221 -0.563726 -0.0401402 0.216456
internal_count=24437 8940 15497 10575 7664 7226 4922 6408 5560 2911 3999 3380 2977 2678 1970 2384 1983 1935 1410 708 438 354 1945 1561 84 996 1657 928 1042 760 1134 1399 79 382 818 1438 946 1570 900
shrinkage=0.015


Tree=19
num_leaves=40
num_cat=0
split_feature=46 46 46 47 46 19 47 38 19 12 6 47 20 0 0 31 40 13 35 47 9 47 24 19 12 38 13 39 0 38 47 11 47 35 6 6 13 41 35
split_gain=858.672 117.88 96.8999 92.3953 53.7754 47.3304 43.3093 40.6856 40.3985 35.9563 30.2819 23.6733 20.7263 20.6122 19.8499 20.5028 19.2257 17.9107 17.1519 16.3243 16.0526 15.8812 15.2986 15.0424 14.6709 15.6364 13.9532 13.1348 12.5687 12.0217 11.2551 11.2513 10.0101 9.87867 9.35035 9.26614 7.95136 10.5411 7.87219
threshold=1.0149999856948855 1.4149999618530276 0.65500000119209301 1.1749999523162844 4.4749999046325692 22.150000572204593 1.1250000000000002 11.34999990463257 19.94999980926514 80.049999237060561 345.00500488281256 0.95499998331069957 74.009998321533217 4.9949998855590829 5.2950000762939462 1.8024999499320986 14.329999923706056 3.9450000524520878 60.049999237060554 1.1050000190734866 13.305000305175783 3.1600000858306889 318.50000000000006 20.349999427795414 22.105000495910648 19.250000000000004 5.6050000190734872 0.080499999225139632 5.6649999618530282 18.349999427795414 1.2050000429153445 83.08499908447267 1.2849999666213991 67.250000000000014 274.01499938964849 288.21000671386724 5.9449999332427987 1.025999963283539 55.144998550415046
decision_type=2 2 2 2 2 8 2 8 8 8 10 2 8 8 8 10 8 10 8 2 10 2 10 8 8 8 8 10 8 10 2 8 2 8 8 8 8 8 8
left_child=2 6 23 11 7 19 -2 12 36 -9 13 31 -5 -10 29 32 22 -18 27 -4 -17 -20 -13 33 25 -21 -12 -6 -26 34 -25 35 -16 -1 -7 -3 -8 -38 -32
right_child=1 3 5 4 18 14 8 9 10 -11 26 16 -14 -15 15 20 17 -19 21 24 -22 -23 -24 30 28 -27 -28 -29 -30 -31 38 -33 -34 -35 -36 -37 37 -39 -40
leaf_value=-0.0062347900795756035 -0.0024801795962075368 -0.0061061509635583202 -0.0085743235566769719 0.0071641598016376025 0.018876533244664852 -0.0043220088662494754 -0.0044180611875690064 0.0042819465305257206 -0.00071424995842261159 0.0093212066284375332 0.0022522858861891318 -0.0064075079672680849 -0.0054880202822659135 0.0019663148560308216 -0.0033369554941781051 0.00081250409771277865 0.0049823084440935366 0.00062617035458889178 -0.0029419899303446007 -0.0075262515905797278 0.0080088524945842263 0.021671309042721985 0.0047797363244327339 -0.0083869937623464903 -0.0036214870941725136 -0.00405260505906455 0.0056626205168916685 0.0024766233388964138 0.00040503915276378393 0.0010157162925241061 -0.0024635127857545072 0.0050620889539019229 -0.00023160302027393903 -0.0097165814580824801 -0.0021296769730310343 -0.001004268278476337 -0.0011670191861613065 0.016494554107387861 -0.0055665066371046691
leaf_count=326 1050 90 192 37 13 724 354 5830 1548 337 1079 29 137 1107 363 236 238 1972 348 379 99 6 533 278 577 1264 360 71 250 185 218 62 655 419 1107 728 49 9 1178
internal_value=0 0.13521 -0.258907 0.19788 0.266958 -0.191087 0.0175534 0.290367 0.0601729 0.303821 0.0902103 0.0696526 -0.186508 0.026894 -0.112341 -0.0186444 0.115016 0.0730195 -0.0719253 -0.290748 0.195946 -0.168321 0.280164 -0.427994 -0.268914 -0.323593 0.207031 0.334314 -0.160285 -0.175224 -0.375387 -0.0732433 -0.089261 -0.5462 -0.19977 -0.104373 -0.238305 0.104905 -0.338796
internal_count=24437 15987 8450 10431 6779 6031 5556 6341 4506 6167 4094 3652 174 2655 3369 1353 2772 2210 438 2662 335 354 562 2419 2470 1643 1439 84 827 2016 1674 880 1018 745 1831 818 412 58 1396
shrinkage=0.015


Tree=20
num_leaves=40
num_cat=0
split_feature=46 46 47 23 13 30 31 39 29 19 23 46 19 47 6 29 0 47 6 16 47 1 39 39 24 24 46 35 8 13 12 47 12 16 26 23 18 13 9
split_gain=803.703 154.763 104.92 66.2806 65.0275 46.2897 42.5403 65.7546 65.1576 39.4866 36.3467 34.1049 30.5337 28.4928 27.8249 27.4525 24.7085 24.2519 21.7508 23.3215 20.1504 19.057 18.8734 17.5591 17.2138 17.1235 17.114 16.4434 15.6337 14.3838 14.3208 13.6583 13.1996 12.4728 12.2509 10.3762 9.81493 9.34167 9.08933
threshold=1.1549999713897707 0.80500000715255748 1.1549999713897707 21.010000228881839 5.1849999427795419 38.45000076293946 2.0049999952316289 1.0000000180025095e-35 10.34999990463257 20.94999980926514 28.005000114440922 6.555000066757203 20.349999427795414 1.0549999475479128 312.00500488281256 18.050000190734867 1.0000000180025095e-35 1.435000002384186 448.05000305175787 74.849998474121108 0.92500001192092907 200.15000152587893 0.070500001311302199 0.12949999421834948 332.50000000000006 327.50000000000006 0.62500000000000011 62.020000457763679 3.1049998998641972 5.2349998950958261 29.695000648498539 1.4650000333786013 23.105000495910648 63.95000076293946 0.43050000071525579 19.710000038146976 9.8450002670288104 5.6250000000000009 21.005000114440922
decision_type=2 2 2 10 8 10 10 10 8 8 8 2 8 2 10 10 10 2 10 8 2 8 10 8 10 8 2 8 8 8 8 2 8 10 8 10 10 8 8
left_child=1 12 10 4 18 25 11 8 -8 28 33 15 31 -11 29 -5 -16 27 19 -4 -12 -20 -7 -22 -25 -6 -19 -14 35 -15 -9 -1 -28 38 -35 36 -3 -30 -2
right_child=2 9 3 6 5 22 7 30 -10 13 20 -13 17 14 16 -17 -18 26 21 -21 23 -23 -24 24 -26 -27 32 -29 37 -31 -32 -33 -34 34 -36 -37 -38 -39 -40
leaf_value=-0.00892757381900104 -0.0015043317187454889 -0.0041328742070221441 0.0018224155837187844 0.0041444325908358334 -0.00022687449713940826 0.016247085303206135 0.0055185896125410422 0.0042538558171462621 0.02565274175698869 -0.0045202601509185371 -0.0012866953019119466 -0.0049281700359036524 -0.0033347902308154061 -0.0025118172191576377 0.007263984363309519 -0.0088469773158431058 0.000459948357361063 -0.0049151847501826915 -0.0022908628886708846 -0.0012668223047219785 -0.0037506534236296622 0.0072133033446417265 0.0068917980930365795 0.0013107319448598176 0.0041913900015772615 0.0036496229864099289 -0.0032803546983328075 -0.0067611146257843422 -0.0054638187615899973 -1.2911981500361421e-05 0.0082756368837178691 -0.0058306708519604011 2.4227595233485138e-05 0.020330382194370031 0.001205510431168547 0.0042131486249688474 0.0029820851711074596 -0.0016000373552683307 -0.0045490812833064208
leaf_count=510 678 176 891 3364 294 81 66 564 80 420 581 99 443 1361 129 37 1738 840 65 1436 121 176 121 1682 646 2004 775 1092 776 837 308 862 419 8 130 70 58 172 327
internal_value=0 -0.208944 0.156679 0.214295 0.135784 0.250588 0.302363 0.482287 1.1034 -0.0972179 0.0243272 0.250031 -0.338669 -0.0533847 -0.0277646 0.266873 0.0620048 -0.289929 0.02402 -0.00559761 0.0816477 0.309996 0.709545 0.121368 0.140673 0.210245 -0.218318 -0.384819 -0.25424 -0.104015 0.378293 -0.465457 -0.14138 -0.127625 0.15428 -0.0569089 -0.157956 -0.31752 -0.166334
internal_count=24437 10678 13759 9586 5068 2500 4518 1018 146 5737 4173 3500 4941 4485 4065 3401 1867 3569 2568 2327 3030 241 202 2449 2328 2298 2034 1535 1252 2198 872 1372 1194 1143 138 304 234 948 1005
shrinkage=0.015


Tree=21
num_leaves=40
num_cat=0
split_feature=19 12 19 6 47 8 8 6 38 8 44 1 22 10 40 12 44 8 38 16 31 47 47 0 8 30 6 29 27 24 37 12 8 36 0 27 38 30 26
split_gain=427.502 95.8539 74.8622 60.2062 60.3791 48.4346 43.7411 37.8508 30.9322 30.7279 29.948 29.3185 23.5319 22.867 22.4267 22.0393 21.8017 21.6875 19.6708 21.6547 18.5109 17.7664 17.0382 16.6178 16.5453 17.4998 16.4475 16.3463 14.8477 14.5654 13.4981 13.4639 13.1847 12.6874 12.3897 12.3732 12.2838 12.0706 11.6389
threshold=22.750000000000004 29.005000114440922 20.050000190734867 288.21000671386724 1.2250000238418581 5.0050001144409189 4.1349999904632577 312.00500488281256 14.050000190734865 4.1649999618530282 122.50000000000001 210.19999694824222 47.704999923706062 0.97250002622604381 14.329999923706056 20.005000114440922 117.50000000000001 5.3949999809265146 19.250000000000004 71.799999237060561 2.2749999761581425 1.2649999856948855 1.0549999475479128 3.9450000524520878 7.4049999713897714 27.250000000000004 507.54499816894537 8.0500001907348651 97.950000762939467 318.50000000000006 0.22500000149011615 97.40000152587892 2.9050000905990605 1.6150000095367434 8.2550001144409197 99.149997711181655 12.150000095367433 35.020000457763679 0.59449997544288646
decision_type=8 8 10 10 2 10 8 10 8 8 2 10 8 8 8 8 2 10 8 8 10 2 2 8 10 8 10 8 10 10 8 10 8 8 8 10 8 10 10
left_child=2 3 15 10 14 8 11 16 -6 18 22 26 13 -8 29 32 37 34 -9 -20 31 -13 -2 -24 25 -12 33 -16 -7 -5 -23 -14 -1 -3 -17 -11 -22 -4 -18
right_child=1 6 7 4 5 28 12 9 -10 35 24 21 20 -15 27 17 38 -19 19 -21 36 30 23 -25 -26 -27 -28 -29 -30 -31 -32 -33 -34 -35 -36 -37 -38 -39 -40
leaf_value=-0.0036238673180750331 -0.0066412983483050891 0.00089500397158353109 -0.0044596735850279514 -0.0071827597754514387 0.00075977103449648272 -0.00039787576224422944 0.028607243597507475 -0.0021418507618068475 0.0039187595159637569 -0.0019875482330972438 -0.0028769107962438832 0.0051815730142698154 0.0020168375769796143 -0.000831137914274947 -0.0026593077094011802 -0.0030851155435385439 -0.00052049690924004378 -0.0082460398754755134 0.0072778207630063863 0.0012744725320411386 -0.00076637810428759881 -7.5929593294858921e-06 -0.0039037912858210459 -0.00069653993130548871 -0.0073868684157496313 0.0011854894865891911 0.0095015301884720012 -7.6379833546739595e-06 -0.011322049741344205 0.0028828667876988128 0.01291385963614752 0.013338942867703735 -0.0071845211742936135 0.0046317096733504773 0.0029768048028927293 0.008093519188363903 0.0067912942950915951 -0.001275314139202237 -0.0031427821448178606
leaf_count=302 182 290 1643 34 904 807 6 197 3052 1265 278 160 1541 565 668 783 947 178 205 397 56 20 554 1057 60 1683 116 2411 29 665 201 24 1039 693 84 28 356 320 637
internal_value=0 0.089451 -0.192186 0.0458659 0.0923806 0.16691 0.223453 -0.129359 0.213126 -0.0226786 -0.0586519 0.360184 0.144032 -0.0347869 -0.00215176 -0.340668 -0.192279 -0.231795 0.131496 0.221253 0.195679 0.599228 -0.152729 -0.119965 0.0248123 0.040639 0.277313 -0.0388618 -0.0517883 0.159551 0.782966 0.146031 -0.42551 0.235288 -0.16652 -0.117949 0.384269 -0.262705 -0.105003
internal_count=24437 16412 8025 12384 8570 4792 4028 5639 3956 2092 3814 1480 2548 571 3778 2386 3547 1045 799 602 1977 381 1793 1611 2021 1961 1099 3079 836 699 221 1565 1341 983 867 1293 412 1963 1584
shrinkage=0.015


Tree=22
num_leaves=40
num_cat=0
split_feature=46 46 47 46 40 46 47 13 38 23 23 13 19 19 30 2 6 47 40 11 47 30 35 39 39 47 39 39 23 30 47 24 8 8 9 3 39 19 47
split_gain=770.66 111.292 87.9243 86.0934 47.4081 45.1637 44.3344 41.061 37.9055 35.4171 28.5114 26.9386 20.318 19.8454 19.7784 17.9769 17.6965 16.9731 16.6306 16.419 15.1829 14.2944 14.256 18.3213 14.1913 12.885 12.7791 12.1357 12.0956 11.0619 10.8263 12.0147 10.4829 10.3574 15.0984 11.6156 10.2418 10.2113 10.1518
threshold=1.0049999952316286 1.4750000238418581 1.0950000286102297 0.6850000023841859 11.550000190734865 4.4749999046325692 1.1549999713897707 5.3350000381469735 11.34999990463257 19.005000114440922 17.005000114440922 5.2349998950958261 23.550000190734867 20.94999980926514 41.350000381469734 0.79499998688697826 273.02000427246099 0.85500001907348644 13.650000095367433 31.005000114440922 3.0799999237060551 39.319999694824226 56.014999389648445 0.26850000023841863 0.32250000536441809 1.4650000333786013 0.16950000077486041 0.20949999988079074 11.444999694824221 41.510000228881843 0.94499999284744274 325.50000000000006 2.9050000905990605 4.2950000762939462 16.704999923706058 9.2750000953674334 0.26049999892711645 24.550000190734867 1.2849999666213991
decision_type=2 2 2 2 8 2 2 8 8 10 10 8 8 8 10 10 10 2 8 8 2 10 8 8 8 2 8 8 8 10 2 10 8 8 10 8 8 8 2
left_child=3 6 17 12 15 8 27 10 -6 11 16 22 18 -12 28 -4 -8 32 -1 29 -7 38 23 -5 -16 -20 -11 -2 -9 -19 -29 -32 -3 34 -28 -35 -21 -24 -13
right_child=1 2 4 9 5 20 7 14 -10 26 13 21 -14 -15 24 -17 -18 19 25 36 -22 -23 37 -25 -26 -27 33 30 -30 -31 31 -33 -34 35 -36 -37 -38 -39 -40
leaf_value=-0.0040946850362156917 -0.0046850041235876752 0.0022666264356925119 0.0094897547804739645 -0.0043067872487255274 -0.0033283801138202641 -0.0014520311703546955 -0.0029180543266796467 -0.0049168042148634485 0.0038705516942334622 -0.0044182743312885164 -0.0027894112965894686 -0.00426721730328953 -0.0038736582415298398 0.0023319913809376862 0.0056060013351765213 0.0020130080813198052 7.1884022729674227e-05 -0.00090323170626641894 -0.0089992378409684756 -0.00013790009046533668 0.022563622370362281 0.0043963611423636648 -0.0052922346601409738 0.0014950365618151586 0.017910747341811657 -0.0062551526486330309 0.0011169875220324104 -0.004585321559807295 0.0026470963406677751 0.0064742016137461179 -0.0016541602107776163 0.0022571857129514684 -0.0047453880163216382 -0.0055425564324042198 0.015129357359061638 -0.00041773957828263514 0.0030673745374393182 -0.0028769663386161931 -0.0011601908441396141
leaf_count=439 304 62 407 302 169 462 811 49 6277 178 199 325 815 1178 71 88 988 967 658 320 6 84 1718 206 30 928 446 187 1628 48 670 240 212 116 18 700 750 511 870
internal_value=0 0.124532 0.191545 -0.250292 0.24508 0.223677 0.0215275 0.065945 0.245454 -0.176995 -0.00217312 -0.225461 -0.39157 0.106124 0.187623 0.544037 -0.0850665 0.0234068 -0.44523 0.0541563 -0.0762759 -0.105651 -0.281448 -0.130272 0.617392 -0.492908 -0.043498 -0.135535 0.161739 -0.0369565 -0.0865401 -0.0415064 -0.210582 -0.00858591 0.110705 -0.0764178 0.140586 -0.315902 -0.13368
internal_count=24437 16123 9768 8314 7409 6914 6355 4954 6446 5474 3176 4016 2840 1377 1778 495 1799 2359 2025 2085 468 1279 2737 508 101 1586 1458 1401 1677 1015 1097 910 274 1280 464 816 1070 2229 1195
shrinkage=0.015


Tree=23
num_leaves=40
num_cat=0
split_feature=46 46 47 31 39 29 39 20 7 19 31 47 47 12 6 46 0 33 11 21 13 46 47 12 38 12 16 40 39 30 46 13 24 40 5 0 31 47 13
split_gain=748.703 144.54 98.4478 61.3828 136.179 55.9055 54.0863 52.6429 37.6994 36.2825 29.7533 28.9705 27.0558 26.8031 25.929 23.9422 23.8011 23.3226 23.288 23.1902 23.0131 21.2602 20.8434 19.5669 18.6391 18.03 16.2109 15.4998 15.4368 14.366 13.7669 13.4041 13.1958 12.7869 12.1423 11.1926 12.0258 11.4697 10.8374
threshold=1.1549999713897707 0.80500000715255748 1.1549999713897707 2.0049999952316289 43.649999618530281 0.031499999575316913 0.25149999558925634 129.05000305175784 63.594999313354499 20.94999980926514 1.0000000180025095e-35 1.4650000333786013 1.0549999475479128 29.304999351501468 312.00500488281256 6.555000066757203 1.0000000180025095e-35 4.0950000286102304 35.004999160766609 64.250000000000014 4.9749999046325692 0.64499998092651378 0.95499998331069957 12.864999771118166 11.449999809265138 20.304999351501468 70.799999237060561 14.449999809265138 0.29050000011920935 33.420000076293952 1.7450000047683718 5.2349998950958261 323.50000000000006 14.550000190734865 121.50000000000001 6.9749999046325692 2.2749999761581425 0.88499999046325695 5.6250000000000009
decision_type=2 2 2 10 8 10 8 8 8 8 10 2 2 8 10 2 10 10 8 8 8 2 2 10 10 8 8 8 8 10 2 8 10 8 10 8 10 2 8
left_child=1 11 18 6 13 7 10 -6 20 38 17 19 -11 34 31 -10 -16 -4 22 33 -8 -13 -2 -12 -15 -23 -7 -24 32 -21 -29 -14 -20 -1 -5 36 -30 -37 -3
right_child=2 9 3 4 5 26 8 -9 15 12 23 21 14 24 16 -17 -18 -19 28 29 -22 25 27 -25 -26 -27 -28 30 35 -31 -32 -33 -34 -35 -36 37 -38 -39 -40
leaf_value=-0.0044308407334261134 -0.0029571536654858441 -0.0042712353859706504 -0.00086852604584655149 -0.0038012940778086582 0.027566398680210113 0.0054493561270355711 -0.00068637415046396194 0.011732190242349614 0.0041694008453215074 -0.0043992030267649427 0.0081153805368858103 -0.0052462463692956943 -0.0024229578398747426 -0.0011570835046803773 0.0071161432594580697 -0.0038799540455220268 0.00043820674309295312 -0.011208113530566069 -0.0047954658511519923 -0.0052421872924683288 0.0026361354885466293 -0.0041627528755696841 0.0028679572091419841 0.00032769584407085783 0.0073042050812760911 -0.0007768032024934922 0.014332557381712831 -0.0019140094643595954 0.0015261971986056456 -0.00041356675996212289 0.00087788929665143158 -1.0651896944403895e-05 0.00094668838120078253 -0.0081141526086530198 0.0025651726178528571 -0.0038777032841462635 0.0065927726360511217 0.0083433414097530689 -0.00046204139334149658
leaf_count=263 608 1052 111 72 88 160 716 102 3805 420 77 1329 1361 67 129 85 1738 88 115 653 1360 771 397 1268 466 654 65 755 775 176 839 837 415 1095 1056 20 122 127 200
internal_value=0 -0.201638 0.151252 0.207063 0.359262 0.871653 0.16499 1.27106 0.208163 -0.0936655 -0.00182719 -0.327006 -0.0516483 0.231241 -0.0266827 0.266234 0.0599745 -0.36272 0.0230477 -0.412932 0.0993481 -0.25877 -0.0350878 0.0515689 0.416039 -0.173919 0.534374 0.0143998 0.119041 -0.281137 -0.0296331 -0.10029 -0.01995 -0.493388 0.14392 0.189602 0.147686 0.445374 -0.244183
internal_count=24437 10678 13759 9586 2076 415 7510 190 5966 5737 1544 4941 4485 1661 4065 3890 1867 199 4173 2187 2076 2754 2599 1345 533 1425 225 1991 1574 829 1594 2198 530 1358 1128 1044 897 147 1252
shrinkage=0.015


Tree=24
num_leaves=40
num_cat=0
split_feature=46 46 47 23 13 30 31 39 29 19 23 46 47 1 47 6 0 21 38 38 46 7 47 39 12 39 24 35 8 28 21 13 40 40 23 16 8 18 26
split_gain=726.41 140.236 95.5165 62.4867 60.8878 43.8718 39.7588 60.8375 61.4833 35.2022 34.2817 32.477 28.1079 26.3092 26.2502 25.157 23.0924 22.4997 22.2748 21.4561 20.6272 20.2498 18.7867 17.6483 17.4932 16.6145 16.0875 16.0838 15.0505 13.9464 13.917 13.005 12.7188 12.4061 10.7737 10.7264 13.7526 10.3651 12.1379
threshold=1.1549999713897707 0.80500000715255748 1.1549999713897707 21.010000228881839 5.1849999427795419 38.45000076293946 2.0049999952316289 1.0000000180025095e-35 10.34999990463257 20.94999980926514 28.005000114440922 5.5150001049041757 1.4650000333786013 134.50000000000003 1.0549999475479128 312.00500488281256 1.0000000180025095e-35 64.250000000000014 11.449999809265138 11.214999675750734 0.64499998092651378 48.004999160766609 0.92500001192092907 0.070500001311302199 20.304999351501468 0.12949999421834948 332.50000000000006 61.619998931884773 2.9850000143051152 52.750000000000007 91.049999237060561 5.2349998950958261 14.750000000000002 14.550000190734865 12.00500011444092 65.250000000000014 2.7050000429153447 9.8450002670288104 1.2304999828338625
decision_type=2 2 2 10 8 10 10 10 8 8 8 2 2 8 2 10 10 8 8 8 2 10 2 10 8 8 10 8 8 10 10 8 8 8 8 10 8 10 8
left_child=1 12 10 4 19 18 11 8 -8 28 32 13 17 -5 -11 31 -17 33 -6 -4 34 -21 -12 -7 -22 -24 -27 -19 37 -9 -13 -16 35 -1 -14 -2 -37 -3 -39
right_child=2 9 3 6 5 23 7 29 -10 14 22 30 20 -15 15 16 -18 27 -20 21 24 -23 25 -25 -26 26 -28 -29 -30 -31 -32 -33 -34 -35 -36 36 -38 38 -40
leaf_value=-0.0043643781093118299 -0.00058957966899045452 -0.0022100717571331189 -0.0073526007669861429 -0.0045140748549389034 -0.0044076876439662141 0.015703349212460496 0.0051958943962712176 0.0051247824153133337 0.024754112080496268 -0.0043332149404720563 -0.0012493906161563932 -0.004735136533312442 -0.0077698669176142505 0.0040880064074396471 -0.0023866134755525566 0.0070094010839780226 0.00043163363588494535 -0.00093736202904681971 0.0032877979501387852 -0.0031430379820891617 -0.0041003116013383469 0.0010368103071606745 -0.003668400867881103 0.0066568006395000563 -0.00076515115127764443 0.0012597550166602873 0.0040445778304664124 -0.0055109878819706703 -0.0044701606177918376 0.016492373210191726 0.014547683919469515 -1.0492114154765914e-05 -0.002720974801006771 -0.0079924403029910211 -0.0044666428115404172 0.026464913913181849 0.0040434440131032123 0.018228549058549107 0.0016553073449176736
leaf_count=263 197 200 80 82 88 81 66 847 80 420 581 131 282 3278 1361 129 1738 246 2210 296 771 2192 121 121 654 1682 646 583 982 25 9 837 888 1095 1047 7 51 12 58
internal_value=0 -0.198614 0.148984 0.203957 0.127726 0.238816 0.289468 0.463409 1.06085 -0.0922606 0.022702 0.238875 -0.3221 0.258538 -0.0508736 -0.0262824 0.0590749 -0.406738 0.19954 0.0195779 -0.254888 0.0359686 0.0783704 0.685625 -0.17131 0.116723 0.135501 -0.27692 -0.24052 0.363379 -0.233035 -0.0987856 -0.12487 -0.485987 -0.344504 0.0719798 0.449966 -0.0314232 0.299762
internal_count=24437 10678 13759 9586 5068 2500 4518 1018 146 5737 4173 3500 4941 3360 4485 4065 1867 2187 2298 2568 2754 2488 3030 202 1425 2449 2328 829 1252 872 140 2198 1143 1358 1329 255 58 270 70
shrinkage=0.015


Tree=25
num_leaves=40
num_cat=0
split_feature=46 47 46 46 39 31 29 31 23 46 0 46 46 19 23 12 38 30 24 39 40 47 30 33 47 23 8 45 39 21 39 8 47 40 7 39 23 32 7
split_gain=752.037 102.415 97.259 75.8904 62.5149 136.119 79.3121 63.6332 36.5545 36.449 35.3903 28.3605 25.6546 24.1766 23.2456 22.8063 21.6858 27.3395 19.5751 30.6233 17.6704 14.8279 14.5871 14.191 12.829 12.4705 12.2591 14.9253 11.3664 10.1899 10.1318 9.96476 9.31761 9.17441 9.10882 8.45363 7.99367 7.92071 7.70958
threshold=1.0049999952316286 1.1349999904632571 1.3149999976158144 0.6850000023841859 26.400000572204593 1.5549999475479128 11.84999990463257 1.1604999899864199 20.904999732971195 1.6549999713897707 4.1949999332427987 4.4749999046325692 3.7749999761581425 20.349999427795414 11.444999694824221 53.030000686645515 19.250000000000004 26.740000724792484 327.50000000000006 0.26049999892711645 11.949999809265138 0.85500001907348644 34.750000000000007 5.305000066757203 0.94499999284744274 29.304999351501468 4.9949998855590829 81.500000000000014 0.27050000429153448 69.950000762939467 0.20850000530481341 2.6250000000000004 1.1449999809265139 17.904999732971195 52.014999389648445 0.088500000536441817 12.210000038146974 2.1950000524520878 108.02999877929689
decision_type=2 2 2 2 8 10 8 10 10 2 8 2 2 8 8 8 8 10 10 8 10 2 10 10 2 8 10 2 8 8 8 8 2 10 10 10 10 10 10
left_child=3 9 14 13 7 11 -7 12 -9 24 26 -6 -4 -1 -3 16 38 -18 20 -20 -16 31 32 25 -2 -23 27 36 -25 -26 -31 -11 -15 -17 -34 37 -5 -24 -12
right_child=1 2 4 10 5 6 -8 8 -10 21 15 -13 -14 22 18 33 17 -19 19 -21 -22 23 35 28 29 -27 -28 -29 -30 30 -32 -33 34 -35 -36 -37 -38 -39 -40
leaf_value=-0.0078061577218034471 -0.0045942824049702569 -0.0043171205989783624 -0.0033363508428429635 -0.0056346543751530174 0.0038976820943823678 0.00677461543592535 0.018123391444236844 0.00069745687635624511 0.0041439073171384271 0.0045402036825391021 -0.0039009018766516415 -0.0012387665877577091 -0.017960572820156812 -0.0083255671320356522 0.00070858050262039474 0.0032155108890403968 -0.002222300730420723 0.0016332114783234764 0.00036553291443434683 0.0055022750990137131 -0.0025364682401401695 -0.0011520877634901513 0.011254509477054371 0.0022721150396647297 -0.0026440432111751598 0.001605017275423698 -0.0070224077891153109 -0.00035980116459051882 0.0087708870404458149 -0.0032245248264260195 0.00086101021231903556 -0.0038195651133761748 -0.0071277004750739141 -0.013123592622578143 -0.0042782090063621389 -0.0033061434716670332 -0.0032341636223724227 -0.00028330561549713213 -0.012042158225344287
leaf_count=854 310 210 269 637 4380 344 232 1339 1434 38 853 256 30 215 1887 231 1968 524 628 447 472 484 17 164 627 1555 324 238 96 177 598 206 333 8 1043 307 612 63 27
internal_value=0 0.123804 0.171318 -0.247118 0.231207 0.2979 0.756377 0.118055 0.165315 -0.00939097 -0.177818 0.240936 -0.320244 -0.379794 0.0351693 -0.120604 -0.141761 -0.0941061 0.0549204 0.166764 0.00395304 0.0665492 -0.319083 0.0914259 -0.122192 0.0633707 -0.2919 -0.253495 0.311444 -0.081487 -0.00480488 -0.167842 -0.361437 0.177906 -0.331187 -0.144963 -0.297229 0.144565 -0.276713
internal_count=24437 16183 11928 8254 8284 5212 576 3072 2773 4255 5422 4636 299 2832 3644 3611 3372 2492 3434 1075 2359 2543 1978 2299 1712 2039 1811 1487 260 1402 775 244 1591 239 1376 387 1249 80 880
shrinkage=0.015


Tree=26
num_leaves=40
num_cat=0
split_feature=46 46 46 39 31 37 31 8 0 23 40 46 0 13 11 8 5 19 12 38 30 29 35 46 30 13 3 0 9 6 8 45 23 0 8 35 26 0 22
split_gain=729.646 96.8136 73.6308 58.3534 73.6365 69.3277 68.004 52.867 34.3366 32.7298 32.3097 29.4833 26.3375 25.4135 25.0696 24.3819 25.1516 23.4568 22.1273 21.0401 26.5254 17.6153 16.0526 15.507 16.6311 15.18 14.1947 13.4851 13.0543 12.5318 11.8941 14.4809 11.341 11.6883 10.6154 9.45327 8.96357 8.70917 8.44299
threshold=1.0049999952316286 1.4750000238418581 0.6850000023841859 0.31049999594688421 1.5149999856948855 1.0199999809265139 5.7500000000000009 3.1950000524520878 4.1949999332427987 16.375000000000004 11.84999990463257 4.4749999046325692 6.2349998950958261 5.5750000476837167 56.829999923706062 4.0950000286102304 174.05000305175784 20.349999427795414 53.030000686645515 19.250000000000004 26.740000724792484 35.649999618530281 61.619998931884773 3.7749999761581425 2.1150000095367436 14.204999923706056 8.6649999618530291 5.055000066757203 6.7099997997283944 279.70500183105474 4.9949998855590829 81.500000000000014 47.80999946594239 6.3350000381469735 4.8450000286102304 47.204999923706062 0.43050000071525579 6.2550001144409189 47.995000839233406
decision_type=2 2 2 8 10 8 8 10 8 10 10 2 8 8 8 8 10 8 8 8 10 8 8 2 10 8 10 8 10 8 10 2 10 8 10 8 8 8 10
left_child=2 9 17 6 11 25 10 -7 30 13 21 14 -12 27 -5 16 26 -1 19 -10 -21 -3 -19 24 -8 -6 -11 29 -13 -2 31 -4 33 -17 -29 -20 -15 -38 -34
right_child=1 3 8 4 5 7 23 -9 18 15 12 28 -14 36 -16 32 -18 22 35 20 -22 -23 -24 -25 -26 -27 -28 34 -30 -31 -32 -33 38 -35 -36 -37 37 -39 -40
leaf_value=-0.0076890653621619915 -0.0036746416001761399 0.006412397560507088 -0.0043915566492093508 0.0028037954924826601 0.003696732757073684 0.018700938013729435 -0.0022148378071234461 0.0069548500147753991 -0.0040884300645431552 0.0019815204336277327 0.0003466809896024077 0.0030845044843936494 0.004049405599882574 0.01156574523076415 0.0061141795953470624 -0.00061065593081913302 0.02981944642961025 -0.0026368180884607257 0.012779778783993893 -0.0021889662217872904 0.0016087132944762777 -0.0031844421802088617 -0.0055933408311418702 -0.016383319608867169 -0.010997816995318446 0.0097777310739426554 0.0057528630166454823 0.00083544544265802469 -0.002785276456179867 -0.00097787007150463754 -0.0069170716964355146 -0.00035440414825781098 0.0018493616623019768 0.002431965554860653 -0.0033084407479361476 0.0017518707384720487 0.00025670038021891961 0.0035805376563609269 0.0077565486827156464
leaf_count=854 742 416 1249 4395 638 169 158 176 880 742 2060 122 547 20 583 1347 8 588 19 1968 524 48 1390 30 70 108 322 727 283 812 324 238 273 360 172 220 517 270 68
internal_value=0 0.121947 -0.243411 0.184345 0.23967 0.476567 0.0767518 0.847249 -0.175151 0.0260712 0.118178 0.191657 0.0749057 -0.0439984 0.212766 0.0992851 0.221472 -0.374097 -0.118795 -0.139635 -0.0926945 0.361308 -0.314297 -0.416354 -0.327424 0.305139 0.20819 -0.0946405 -0.0678064 -0.151035 -0.287522 -0.249693 0.035328 0.00206811 0.00284146 0.175238 0.109936 0.093135 0.201822
internal_count=24437 16183 8254 9803 6474 1091 3329 345 5422 6380 3071 5383 2607 3260 4978 3120 1072 2832 3611 3372 2492 464 1978 258 228 746 1064 2453 405 1554 1811 1487 2048 1707 899 239 807 787 341
shrinkage=0.015


Tree=27
num_leaves=40
num_cat=0
split_feature=46 47 46 46 39 31 29 31 23 46 0 46 46 19 23 12 38 30 24 39 40 35 47 33 47 23 23 39 0 47 40 21 39 8 35 26 40 8 45
split_gain=707.92 99.8825 92.3619 71.4384 59.4215 129.718 75.6098 60.3371 35.1736 34.6282 33.3198 26.8871 24.362 22.8371 22.298 21.7272 20.2111 26.6479 18.9847 35.6463 19.0705 15.7303 14.3757 13.7567 12.4756 12.3602 11.7167 10.8836 10.4849 10.327 10.2575 9.80989 9.78385 9.76036 8.89937 8.57191 7.94994 7.50808 10.5713
threshold=1.0049999952316286 1.1349999904632571 1.3149999976158144 0.6850000023841859 26.400000572204593 1.5549999475479128 11.84999990463257 1.1604999899864199 20.904999732971195 1.6549999713897707 4.1749999523162851 4.4749999046325692 3.7749999761581425 21.94999980926514 11.444999694824221 53.030000686645515 19.250000000000004 26.740000724792484 324.50000000000006 0.070500001311302199 11.949999809265138 61.619998931884773 0.85500001907348644 5.305000066757203 0.94499999284744274 63.014999389648445 12.210000038146974 0.27050000429153448 5.2650001049041757 1.2250000238418581 12.84999990463257 69.950000762939467 0.20050000399351123 4.1649999618530282 47.204999923706062 0.76100000739097606 17.904999732971195 4.9949998855590829 81.500000000000014
decision_type=2 2 2 2 8 10 8 10 10 2 8 2 2 8 8 8 8 10 10 10 10 8 2 10 2 10 10 8 8 2 8 8 8 8 8 8 10 10 2
left_child=3 9 14 13 7 11 -7 12 -9 24 26 -6 -4 28 35 16 -12 -18 20 -20 -16 -15 33 25 -2 -24 37 -25 30 -23 -1 -26 -33 -11 -17 -3 -36 38 -5
right_child=1 2 4 10 5 6 -8 8 -10 22 15 -13 -14 21 18 34 17 -19 19 -21 -22 29 23 27 31 -27 -28 -29 -30 -31 -32 32 -34 -35 36 -37 -38 -39 -40
leaf_value=-0.004356862429802588 -0.0045436174524478585 0.0048621973062732389 -0.0032458063942158674 -0.0055678780753676002 0.0037984134381119088 0.0066067911029761509 0.017687521474038258 0.00066829583988072178 0.0040490203617989653 0.0012021328225091563 -0.0040214725174455889 -0.0012028251408446522 -0.017496833179146049 -0.0015174168677700162 0.00059898744815540942 0.01217640767013654 -0.0021828655651955232 0.0016083258196621581 0.0070233944485337037 0.00090562005951779878 -0.00315419485642441 -0.0082380071878287702 0.00040794061316761328 0.0022077560585230679 -0.0026133767453342025 0.0037093760333756719 -0.0030627094143302201 0.0085670050591301096 -0.004962698057921309 -0.0043485978921910372 -0.0083475987341385862 -0.0033179440130886384 0.00079009353809157299 -0.0049390599037193363 0.0022795024623248434 -0.0052396121755748665 -0.012953016869723796 -0.0084704348951122853 -0.0002708783148958975
leaf_count=175 310 21 269 628 4380 344 232 1339 1434 96 886 256 30 379 1867 20 1987 528 279 924 364 192 1740 164 627 299 898 96 475 768 843 166 609 148 212 189 8 157 98
internal_value=0 0.120118 0.16704 -0.23976 0.225402 0.290424 0.737991 0.115085 0.161105 -0.0114198 -0.172524 0.234816 -0.311712 -0.368486 0.0343637 -0.117697 -0.138218 -0.0924628 0.0537081 0.154964 -0.000891001 -0.273663 0.0625993 0.0870937 -0.121368 0.059471 -0.28461 0.303719 -0.453528 -0.341765 -0.510771 -0.0812268 -0.00598811 -0.16819 0.1731 -0.281962 0.11504 -0.366405 -0.323524
internal_count=24437 16183 11928 8254 8284 5212 576 3072 2773 4255 5422 4636 299 2832 3644 3641 3401 2515 3434 1203 2231 1339 2543 2299 1712 2039 1781 260 1493 960 1018 1402 775 244 240 210 220 883 726
shrinkage=0.015


Tree=28
num_leaves=40
num_cat=0
split_feature=46 47 46 46 39 31 29 31 46 12 0 46 19 46 24 39 29 19 31 35 40 6 31 39 47 16 27 47 4 39 26 47 8 45 21 39 12 6 7
split_gain=686.842 96.9085 89.6118 69.4448 57.6523 125.855 73.3585 58.5406 33.5971 31.6691 27.5646 26.0865 24.1363 23.6366 21.4647 31.2679 51.0406 19.0209 18.3184 17.2297 16.1335 17.981 15.8709 24.3452 14.726 14.2217 16.2491 16.0241 14.8939 14.2208 12.8118 12.1042 10.4603 12.2725 9.5178 9.50166 8.71503 8.49955 8.20273
threshold=1.0049999952316286 1.1349999904632571 1.3149999976158144 0.70499998331069957 26.400000572204593 1.5549999475479128 11.84999990463257 1.1604999899864199 1.6549999713897707 69.029998779296889 4.1749999523162851 4.4749999046325692 20.349999427795414 3.7749999761581425 327.50000000000006 0.070500001311302199 0.041999999433755882 20.550000190734867 0.80500000715255748 62.020000457763679 11.949999809265138 247.29000091552737 2.2150000333786015 0.099500000476837172 1.4650000333786013 52.549999237060554 85.610000610351577 0.85500001907348644 31.804999351501468 0.29050000011920935 0.17500000447034839 0.94499999284744274 5.1749999523162851 81.500000000000014 69.950000762939467 0.20850000530481341 13.704999923706056 456.50000000000006 72.259998321533217
decision_type=2 2 2 2 8 10 8 10 2 8 8 2 8 2 10 10 10 8 10 8 10 8 10 10 2 10 8 2 10 8 8 2 10 2 8 8 10 8 10
left_child=3 8 14 12 7 11 -7 13 31 -9 32 -6 -1 -4 20 16 -16 -12 -17 -14 21 -3 29 -24 -21 27 -27 -10 -29 -19 -28 -2 33 -5 -33 -36 -22 -34 -26
right_child=1 2 4 10 5 6 -8 9 25 -11 17 -13 19 -15 15 18 -18 22 -20 24 36 -23 23 -25 38 26 30 28 -30 -31 -32 34 37 -35 35 -37 -38 -39 -40
leaf_value=-0.0072700569274943266 -0.0044754631942341798 -0.0023730528649017896 -0.0031971192523944413 -0.0041477887546302076 0.003741437242362785 0.0065076891968495806 0.017422208662560324 0.0019074344303400368 -0.0043095286925984889 0.007814238596836583 -0.0038802150334699215 -0.0011847827663041244 -0.0024665887437731729 -0.017234380505979061 0.015359753522717096 -0.011377044438074033 0.0019505866955961712 -0.0033718410856243435 0.0011797686620719217 -0.0068595773659678857 0.0040569889715407047 0.0010814838358493512 0.0095559319241406166 -0.00012888501143905855 -0.004785204421400872 0.0086014224966632184 0.023642639219760894 0.001078831991642101 -0.0040661054470227933 -0.00079964701343882591 0.0016332466347953149 -0.0025741760410913197 -0.0074175266072163551 -0.00037043120485232689 -0.0031413144621035179 0.0008151255783412849 -0.003239518610858208 0.0055119867296889421 -0.0013139771979492562
leaf_count=953 310 432 269 1167 4380 344 232 2551 164 222 697 256 699 30 97 27 187 685 821 727 40 1575 73 292 624 89 6 1419 139 1645 726 627 245 232 177 598 465 12 203
internal_value=0 0.118316 0.164534 -0.236163 0.222021 0.286068 0.726921 0.113359 -0.0112486 0.158688 -0.163065 0.231294 -0.351261 -0.307036 0.0338483 0.148178 0.435365 -0.111433 0.0519976 -0.29483 -0.017673 0.0225271 -0.0733502 0.120539 -0.35348 0.0616603 0.169965 0.0100237 0.0413211 -0.103723 0.12091 -0.119547 -0.268823 -0.234759 -0.0800084 -0.00589829 -0.177438 -0.454254 -0.262209
internal_count=24437 16183 11928 8254 8284 5212 576 3072 4255 2773 5048 4636 3206 299 3644 1132 284 3392 848 2253 2512 2007 2695 365 1554 2543 821 1722 1558 2330 732 1712 1656 1399 1402 775 505 257 827
shrinkage=0.015


Tree=29
num_leaves=40
num_cat=0
split_feature=46 47 46 46 39 31 29 31 23 46 0 46 46 19 23 12 38 30 24 39 40 47 16 27 47 30 26 47 13 8 0 40 23 45 40 26 23 40 40
split_gain=666.391 94.0231 86.9436 67.4192 55.9357 122.108 71.1743 56.7975 34.2045 32.5968 31.4763 25.3098 22.9328 21.7855 21.5332 20.8244 19.5428 24.8704 17.9669 33.603 18.0452 14.6464 13.7983 15.7653 15.547 12.9213 12.4303 11.7438 11.512 11.0979 10.1453 9.90461 9.55737 8.90914 8.60946 8.21804 7.96938 7.71987 7.53842
